
\data\
ngram 1=12885
ngram 2=40193
ngram 3=65500

\1-grams:
-1.370414	</s>
-99	<s>	-0.9691372
-5.036735	<unk>
-2.805374	A	-0.3723488
-5.036735	AB
-5.036735	ABILITY
-5.036735	ABLE
-4.667431	ABOUT	-0.1270336
-5.036735	ABSOLUTE
-5.036735	ABSOLUTELY
-5.036735	ACCEPT
-5.036735	ACCEPTANCE
-5.036735	ACCEPTS
-4.667431	ACCESS	-0.1270336
-5.036735	ACCOUNT
-5.036735	ACCUMULATE
-5.036735	ACCUMULATED
-5.036735	ACCUMULATION
-4.503969	ACCURACY	-0.2307235
-3.764153	ACCURATE	-0.4151737
-5.036735	ACCUSE
-5.036735	ACKNOWLEDGEMENT
-3.402255	ACOUSTIC	-0.3549823
-5.036735	ACOUSTICAL
-5.036735	ACOUSTICS
-5.036735	ACROSS
-5.036735	ACT
-3.607715	ACTION	-0.2461962
-5.036735	ACTIVE
-4.667431	ACTIVITY	-0.1270336
-5.036735	ACTS
-5.036735	ACTUAL
-5.036735	ACTUALLY
-5.036735	AD
-4.321242	ADAPT	-0.1933412
-3.65387	ADAPTATION	-0.2305913
-5.036735	ADAPTED
-5.036735	ADAPTIVE
-4.667431	ADD	-0.1270336
-4.667431	ADDITION	-0.1270336
-5.036735	ADDITIONAL
-4.139026	ADDITIVE	-0.4026554
-5.036735	ADDRESS
-5.036735	ADJUST
-5.036735	ADJUSTMENT
-4.667431	ADMISSIBILITY	-0.1270336
-5.036735	ADMISSIBLE
-5.036735	ADVANCE
-5.036735	AFFECTION
-4.667431	AFTER	-0.1270336
-5.036735	AFTERNOON
-4.667431	AGAIN	-0.1270336
-4.667431	AGENT	-0.1270336
-5.036735	AH
-5.036735	AI
-5.036735	ALARM
-5.036735	ALGEBRA
-3.764153	ALGORITHM	-0.2570006
-5.036735	ALIAS
-4.503969	ALIASING	-0.1270336
-5.036735	ALIGN
-4.667431	ALL	-0.1270336
-4.667431	ALLOCATE	-0.1270336
-4.667431	ALLOCATION	-0.1270336
-5.036735	ALLOW
-4.667431	ALMOST	-0.1270336
-5.036735	ALONE
-4.667431	ALONG	-0.1270336
-3.158262	ALPHA	-0.3562912
-5.036735	ALPHABET
-5.036735	ALSO
-5.036735	ALTERNATE
-5.036735	ALTERNATING
-4.503969	ALTERNATIVE	-0.1270336
-5.036735	ALWAYS
-5.036735	AM
-4.667431	AMBIGUITY	-0.1270336
-5.036735	AMONG
-4.667431	AMPLIFIER	-0.1270336
-5.036735	AMPLIFIES
-5.036735	AMPLIFY
-3.831956	AMPLITUDE	-0.1700955
-4.503969	AMY	-0.1270336
-5.036735	AN
-5.036735	ANALOG
-5.036735	ANALYSES
-4.503969	ANALYSIS	-0.1933412
-4.139026	AND	-0.1270336
-5.036735	ANGELES
-5.036735	ANGER
-5.036735	ANGLE
-4.667431	ANOTHER	-0.1270336
-5.036735	ANSWER
-5.036735	ANSWERING
-4.321242	ANTI	-0.1933412
-4.667431	ANY	-0.1270336
-5.036735	ANYTIME
-4.667431	ANYWAY	-0.1270336
-5.036735	ANYWHERE
-5.036735	APPEAR
-4.011057	APPLICATION	-0.1270336
-4.503969	APPLY	-0.2307235
-4.667431	APPROACH	-0.1270336
-5.036735	APPROPRIATE
-5.036735	APPROXIMATE
-5.036735	APPROXIMATELY
-4.503969	APPROXIMATION	-0.1270336
-5.036735	AR
-4.667431	ARBITRARILY	-0.1270336
-5.036735	ARBITRARY
-5.036735	ARC
-5.036735	ARCHITECTURE
-4.667431	ARCHIVE	-0.1270336
-5.036735	ARE
-5.036735	AREA
-5.036735	ARM
-4.667431	ARRAY	-0.1270336
-5.036735	ARTICULATION
-5.036735	AS
-5.036735	ASCII
-4.667431	ASIDE	-0.1270336
-5.036735	ASSERT
-5.036735	ASSIGN
-5.036735	ASSOCIATE
-4.667431	ASSOCIATION	-0.1270336
-5.036735	ASSUMING
-4.139026	ASSUMPTION	-0.1589231
-4.667431	ASYMMETRIC	-0.1270336
-5.036735	ASYMMETRICAL
-5.036735	ASYNCHRONOUS
-4.011057	AT	-0.3317794
-5.036735	ATTRACTIVE
-5.036735	ATTRIBUTE
-5.036735	AUDIO
-5.036735	AUTO
-5.036735	AUTOMATIC
-5.036735	AUXILIARY
-5.036735	AVAILABLE
-4.503969	AVERAGE	-0.1270336
-4.667431	AVERAGED	-0.1270336
-4.667431	AVERAGING	-0.1270336
-5.036735	AY
-5.036735	A_C
-4.667431	A_C_M	-0.1270336
-4.503969	A_I	-0.1270336
-5.036735	A_M
-5.036735	A_P_I
-5.036735	A_S_R
-3.283625	B	-0.2425845
-4.503969	BACK	-0.1270336
-4.321242	BACKGROUND	-0.1933412
-4.139026	BACKOFF	-0.1270336
-4.139026	BACKTRACK	-0.1757913
-4.667431	BACKTRACKING	-0.1270336
-4.321242	BACKWARD	-0.165592
-5.036735	BAD
-5.036735	BALANCE
-5.036735	BAND
-4.503969	BANDWIDTH	-0.1270336
-5.036735	BANK
-4.503969	BAR	-0.2307235
-5.036735	BARING
-5.036735	BARRIER
-3.831956	BASE	-0.2013029
-3.764153	BASED	-0.1767013
-5.036735	BASES
-4.011057	BASIC	-0.4995654
-3.764153	BASIS	-0.1716934
-5.036735	BASS
-5.036735	BAT
-5.036735	BATCH
-4.503969	BAUM	-0.2307235
-4.667431	BAYES	-0.1270336
-5.036735	BAYESIAN
-4.667431	BE	-0.1270336
-5.036735	BEAM
-5.036735	BEAMWIDTH
-5.036735	BED
-5.036735	BEGINNING
-5.036735	BEHAVE
-5.036735	BEHAVIOR
-5.036735	BELL
-4.503969	BELONG	-0.2307235
-5.036735	BELOW
-4.011057	BEST	-0.165592
-5.036735	BET
-3.565997	BETA	-0.2185082
-5.036735	BETTER
-5.036735	BETWEEN
-5.036735	BI
-5.036735	BIAS
-3.527937	BIGRAM	-0.2809583
-5.036735	BILATERAL
-4.667431	BILL	-0.1270336
-5.036735	BINARY
-5.036735	BIOS
-5.036735	BIRTH
-4.011057	BIT	-0.2433367
-4.321242	BITRATE	-0.1270336
-4.139026	BITS	-0.1757913
-4.503969	BLIND	-0.1270336
-5.036735	BLOCK
-5.036735	BODE
-4.667431	BONUS	-0.1270336
-4.667431	BOOK	-0.1270336
-4.011057	BORING	-0.2110537
-5.036735	BOSTON
-4.667431	BOTH	-0.1270336
-4.321242	BOTTOM	-0.2777166
-5.036735	BOUND
-4.503969	BOUNDARY	-0.1270336
-5.036735	BOUNDED
-5.036735	BOY
-4.503969	BRANCHING	-0.2307235
-4.321242	BREADTH	-0.2777166
-5.036735	BREATH
-4.667431	BROWSE	-0.1270336
-4.503969	BROWSING	-0.2307235
-4.667431	BUILD	-0.1270336
-5.036735	BUILDING
-4.667431	BURST	-0.1270336
-5.036735	BURSTING
-5.036735	BURSTY
-5.036735	BUS
-5.036735	BUSH
-5.036735	BUT
-5.036735	BUTTERWORTH
-3.764153	BY	-0.1507286
-3.327269	C	-0.2306108
-5.036735	CA
-4.667431	CAN	-0.1270336
-5.036735	CANCEL
-5.036735	CANCELLATION
-4.011057	CANDIDATE	-0.1589231
-5.036735	CAPABILITY
-5.036735	CAPTURE
-5.036735	CAR
-4.667431	CARE	-0.1270336
-5.036735	CAREER
-4.667431	CAREFUL	-0.1270336
-5.036735	CARRIE
-5.036735	CARRIED
-5.036735	CARRIER
-5.036735	CARRY
-5.036735	CART
-5.036735	CASCADE
-3.492946	CASE	-0.2643611
-5.036735	CASES
-5.036735	CASUAL
-5.036735	CAT
-5.036735	CATEGORY
-5.036735	CAUSAL
-5.036735	CAUSALITY
-5.036735	CC
-5.036735	CD
-5.036735	CENTER
-5.036735	CENTROID
-4.321242	CEPSTRAL	-0.1933412
-5.036735	CEPSTRUM
-4.667431	CERTAIN	-0.1270336
-4.321242	CH	-0.1270336
-5.036735	CHAIN
-5.036735	CHALLENGE
-4.667431	CHALLENGING	-0.1270336
-5.036735	CHANGE
-4.503969	CHANNEL	-0.1270336
-4.667431	CHAPTER	-0.1270336
-3.912339	CHARACTER	-0.1270336
-5.036735	CHARACTERISTICS
-4.503969	CHASE	-0.1270336
-4.667431	CHECK	-0.1270336
-5.036735	CHI
-5.036735	CHOICE
-5.036735	CHORD
-5.036735	CHRISTMAS
-5.036735	CIRCLE
-3.912339	CITY	-0.1542216
-5.036735	CLAIM
-5.036735	CLARIFY
-3.492946	CLASS	-0.2784157
-4.667431	CLASSIFICATION	-0.1270336
-4.139026	CLEAN	-0.4026554
-3.912339	CLIENT	-0.183226
-4.667431	CLOSE	-0.1270336
-4.667431	CLOSED	-0.1270336
-5.036735	CLOUDY
-4.503969	CLUSTER	-0.1757913
-4.503969	CLUSTERING	-0.2307235
-4.321242	CO	-0.1933412
-4.321242	COARTICULATION	-0.1933412
-4.321242	CODE	-0.1270336
-5.036735	CODEBOOK
-4.667431	CODING	-0.1270336
-5.036735	COE
-4.503969	COEFFICIENT	-0.1270336
-5.036735	COEFFICIENTS
-4.139026	COHORT	-0.4026554
-5.036735	COL
-5.036735	COLLECT
-5.036735	COLLECTED
-4.011057	COLUMN	-0.1716934
-4.503969	COMBINATION	-0.1933412
-5.036735	COMBINE
-4.503969	COME	-0.1270336
-5.036735	COMFORTABLE
-5.036735	COMMAND
-5.036735	COMMENT
-5.036735	COMMON
-5.036735	COMMUNICATE
-5.036735	COMMUNICATION
-5.036735	COMPACT
-5.036735	COMPETE
-3.607715	COMPETING	-0.2628193
-4.139026	COMPILE	-0.1270336
-4.321242	COMPLETE	-0.1270336
-4.667431	COMPLEX	-0.1270336
-5.036735	COMPLICATED
-4.667431	COMPONENT	-0.1270336
-5.036735	COMPOSE
-4.667431	COMPOSED	-0.1270336
-5.036735	COMPOSITE
-4.321242	COMPRESS	-0.1270336
-4.321242	COMPRESSION	-0.165592
-4.667431	COMPUTATION	-0.1270336
-4.667431	COMPUTATIONAL	-0.1270336
-5.036735	COMPUTE
-3.831956	COMPUTER	-0.1716933
-5.036735	COMPUTING
-4.667431	CON	-0.1270336
-5.036735	CONCEALMENT
-3.283625	CONCEPT	-0.4730138
-5.036735	CONCERN
-5.036735	CONCERNED
-4.667431	CONCLUSION	-0.1270336
-4.011057	CONDITION	-0.1270336
-5.036735	CONDITIONED
-4.011057	CONFIDENCE	-0.3317795
-4.503969	CONFIRM	-0.1270336
-4.321242	CONFIRMATION	-0.1933412
-4.011057	CONFUSE	-0.165592
-4.667431	CONFUSED	-0.1270336
-4.667431	CONFUSING	-0.1270336
-5.036735	CONJUGATE
-5.036735	CONJUGATION
-5.036735	CONNECTED
-5.036735	CONNECTING
-5.036735	CONNECTION
-5.036735	CONSENT
-4.667431	CONSIDER	-0.1270336
-5.036735	CONSIST
-5.036735	CONSISTENT
-5.036735	CONSONANT
-5.036735	CONSTANT
-5.036735	CONSTRAIN
-4.139026	CONSTRAINT	-0.258305
-4.667431	CONSTRAINTS	-0.1270336
-5.036735	CONSTRUCT
-5.036735	CONTACT
-4.321242	CONTENT	-0.1270336
-3.70552	CONTEXT	-0.3086278
-5.036735	CONTINUE
-5.036735	CONTINUED
-5.036735	CONTINUES
-4.503969	CONTINUOUS	-0.1270336
-5.036735	CONTINUOUSLY
-5.036735	CONTOUR
-5.036735	CONTRAST
-4.667431	CONTRIBUTION	-0.1270336
-4.139026	CONTROL	-0.1270336
-4.321242	CONVERGE	-0.1933412
-5.036735	CONVERGENCE
-5.036735	CONVERSATION
-4.667431	CONVERSATIONAL	-0.1270336
-5.036735	CONVERSION
-4.503969	CONVERT	-0.1270336
-5.036735	CONVERTER
-5.036735	CONVEY
-3.430432	CONVOLUTION	-0.2274161
-4.011057	CONVOLUTIONAL	-0.3317794
-4.139026	CONVOLVE	-0.2348694
-4.667431	COPY	-0.1270336
-4.667431	COR	-0.1270336
-4.667431	CORE	-0.1270336
-5.036735	CORPORA
-3.912339	CORPUS	-0.2461962
-5.036735	CORRECT
-5.036735	CORRECTION
-5.036735	CORRELATE
-5.036735	CORRELATION
-5.036735	CORRESPOND
-4.667431	CORRESPONDING	-0.1270336
-5.036735	COS
-3.460565	COSINE	-0.2911489
-5.036735	COST
-5.036735	COUNT
-5.036735	COUNTERCLOCKWISE
-5.036735	COUNTS
-5.036735	COUPLE
-5.036735	COURSE
-3.607715	COVARIANCE	-0.3208112
-4.667431	COVER	-0.1270336
-5.036735	CRIED
-5.036735	CRITERIA
-5.036735	CRITERION
-5.036735	CRITICAL
-3.764153	CROSS	-0.5358994
-5.036735	CROSSING
-5.036735	CRY
-5.036735	CULMINATION
-5.036735	CUMULATE
-5.036735	CUP
-5.036735	CURRENT
-4.503969	CURVE	-0.1270336
-5.036735	CUT
-5.036735	CUTOFF
-5.036735	CYCLE
-4.503969	C_A_T	-0.1270336
-3.207633	D	-0.2880836
-5.036735	DA
-5.036735	DANGER
-2.961505	DATA	-0.2933023
-3.912339	DATABASE	-0.2628193
-5.036735	DATE
-5.036735	DE
-4.321242	DEADLINE	-0.1270336
-5.036735	DEALY
-5.036735	DECADE
-5.036735	DECIDES
-5.036735	DECIMATION
-5.036735	DECISION
-5.036735	DECODE
-4.667431	DECODING	-0.1270336
-5.036735	DECOMPOSE
-4.667431	DECOMPOSITION	-0.1270336
-5.036735	DECOUPLE
-4.667431	DECREASING	-0.1270336
-5.036735	DEEMPHASIZE
-5.036735	DEEMPHASIZING
-5.036735	DEEP
-3.565997	DEFINE	-0.1948527
-4.667431	DEFINED	-0.1270336
-4.667431	DEFINITION	-0.1270336
-5.036735	DEGENERACY
-4.667431	DEGREE	-0.1270336
-4.667431	DEL	-0.1270336
-4.667431	DELAY	-0.1270336
-4.321242	DELETE	-0.1933412
-5.036735	DELETING
-4.503969	DELETION	-0.1270336
-3.492946	DELTA	-0.3004298
-5.036735	DEMAIN
-3.527937	DEMO	-0.1617014
-5.036735	DEMODULATE
-5.036735	DEMODULATION
-4.667431	DENSITY	-0.1270336
-5.036735	DEPART
-4.667431	DEPEND	-0.1270336
-4.667431	DEPENDENCY	-0.1270336
-4.321242	DEPENDENT	-0.165592
-3.527937	DEPENDS	-0.7467529
-4.667431	DEPTH	-0.1270336
-5.036735	DESCENT
-5.036735	DESCRIBE
-4.503969	DESIGN	-0.1270336
-5.036735	DESIRED
-5.036735	DETAIL
-5.036735	DETAILED
-4.321242	DETECT	-0.1270336
-4.667431	DETECTED	-0.1270336
-5.036735	DETECTING
-4.667431	DETECTION	-0.1270336
-5.036735	DETECTOR
-5.036735	DETERMINANT
-5.036735	DETERMINISTIC
-5.036735	DEVELOPMENT
-4.667431	DEVICE	-0.1270336
-5.036735	DI
-4.667431	DIA	-0.1270336
-5.036735	DIAG
-4.667431	DIAGONAL	-0.1270336
-5.036735	DIAGRAM
-4.667431	DIALING	-0.1270336
-5.036735	DIALOG
-3.225421	DIALOGUE	-0.2517421
-4.321242	DICTATION	-0.1933412
-5.036735	DID
-5.036735	DIFFERENCE
-5.036735	DIFFERENCES
-3.831956	DIFFERENT	-0.2628193
-5.036735	DIFFERENTIAL
-5.036735	DIFFERENTLY
-5.036735	DIGIT
-5.036735	DIGITAL
-5.036735	DIGITALIZATION
-5.036735	DIGITALLY
-4.667431	DIGITIZE	-0.1270336
-5.036735	DIGITS
-4.667431	DIMEN	-0.1270336
-3.565997	DIMENSION	-0.2048407
-5.036735	DIMENSIONALITY
-5.036735	DIRECT
-5.036735	DIRECTION
-5.036735	DIS
-5.036735	DISC
-5.036735	DISCONTINUITY
-5.036735	DISCOUNT
-3.912339	DISCOURSE	-0.3446634
-4.139026	DISCRETE	-0.1270336
-5.036735	DISCRIMINATING
-5.036735	DISCRIMINATION
-5.036735	DISCRIMINATIVE
-5.036735	DISFLUENCY
-5.036735	DISPERSION
-3.70552	DISTANCE	-0.1589232
-5.036735	DISTORT
-5.036735	DISTORTED
-4.011057	DISTORTION	-0.3317795
-5.036735	DISTRIBUTE
-4.321242	DISTRIBUTED	-0.1270336
-3.402255	DISTRIBUTION	-0.2494354
-5.036735	DISTURBANCE
-5.036735	DISTURBANCES
-5.036735	DIVISION
-5.036735	DK
-5.036735	DO
-5.036735	DOC
-4.667431	DOCU	-0.1270336
-3.607715	DOCUMENT	-0.313143
-5.036735	DOCUMENTS
-5.036735	DOE
-5.036735	DOES
-5.036735	DOG
-3.460565	DOMAIN	-0.2365213
-5.036735	DOMINATE
-5.036735	DOT
-4.667431	DOUBLE	-0.1270336
-5.036735	DOW
-4.667431	DOWN	-0.1270336
-3.70552	DOWNLOAD	-0.1862359
-5.036735	DR
-4.503969	DRIVEN	-0.1270336
-5.036735	DROVE
-5.036735	DU
-5.036735	DUAL
-5.036735	DUALITY
-5.036735	DUB
-5.036735	DUMMY
-5.036735	DUMPING
-5.036735	DURATION
-5.036735	DURING
-4.667431	DYNAMIC	-0.1270336
-5.036735	DYNAMICALLY
-4.503969	D_B	-0.1270336
-5.036735	D_C_C
-5.036735	D_C_T
-5.036735	D_S_P
-4.667431	D_S_R	-0.1270336
-4.321242	D_T_W	-0.1933412
-2.905891	E	-0.5185269
-4.667431	EACH	-0.1270336
-5.036735	EAR
-5.036735	EDGE
-5.036735	EE
-5.036735	EFFECT
-4.667431	EFFICIENCY	-0.1270336
-3.831956	EFFICIENT	-0.2165833
-5.036735	EIGEN
-5.036735	EIGENSPACE
-3.527937	EIGENVALUE	-0.2812175
-5.036735	EIGENVECT
-3.430432	EIGENVECTOR	-0.2996594
-3.912339	EIGENVOICE	-0.1818464
-5.036735	EIGHT
-4.321242	EITHER	-0.1933412
-4.139026	ELEMENT	-0.165592
-4.667431	ELEVEN	-0.1270336
-5.036735	ELIMINATE
-5.036735	ELK
-5.036735	ELLIPTICAL
-4.321242	EM	-0.1270336
-4.321242	EMAIL	-0.1270336
-5.036735	EMBEDDED
-5.036735	EMOTIONAL
-4.667431	EMPHASIS	-0.1270336
-5.036735	EMPHASIZE
-5.036735	EMPHASIZING
-2.185985	EMPH_A	-1.087698
-5.036735	EN
-5.036735	ENABLE
-4.503969	END	-0.1270336
-5.036735	ENDANGERED
-3.912339	ENDING	-0.2554791
-5.036735	ENDPOINT
-4.667431	ENDS	-0.1270336
-4.321242	ENERGY	-0.1270336
-4.667431	ENGINEER	-0.1270336
-5.036735	ENGINEERING
-4.503969	ENHANCEMENT	-0.1270336
-5.036735	ENOUGH
-5.036735	ENTITY
-5.036735	ENTRO
-3.607715	ENTROPY	-0.2013029
-5.036735	ENTRY
-5.036735	ENVELOP
-5.036735	ENVELOPE
-4.503969	ENVIRONMENT	-0.1270336
-4.503969	ENVIRONMENTAL	-0.1270336
-5.036735	EPSIL
-4.011057	EPSILON	-0.1933412
-4.321242	EQUAL	-0.1933412
-5.036735	EQUALIZER
-4.503969	EQUALLY	-0.2307235
-4.667431	EQUATION	-0.1270336
-5.036735	EQUIVALENT
-3.402255	ERROR	-0.2661564
-4.139026	ESTIMATE	-0.165592
-5.036735	ESTIMATION
-5.036735	EVALUATE
-4.321242	EVALUATION	-0.1757913
-4.667431	EVEN	-0.1270336
-5.036735	EVENING
-3.607715	EVENT	-0.2461962
-4.321242	EVENTS	-0.2777166
-5.036735	EVERY
-4.503969	EVERYTHING	-0.1270336
-5.036735	EVERYWHERE
-4.667431	EVIDENCE	-0.1270336
-5.036735	EXACT
-5.036735	EXACTION
-4.011057	EXACTLY	-0.1270336
-4.139026	EXAMPLE	-0.1933412
-5.036735	EXCEPTION
-4.011057	EXCITATION	-0.1589232
-5.036735	EXPAND
-5.036735	EXPANSE
-4.667431	EXPANSION	-0.1270336
-4.011057	EXPECTATION	-0.1542216
-5.036735	EXPECTED
-5.036735	EXPEND
-5.036735	EXPERIMENT
-5.036735	EXPONENT
-5.036735	EXPONENTIAL
-5.036735	EXPRESSION
-5.036735	EXTEND
-5.036735	EXTENDED
-4.503969	EXTERNAL	-0.2307235
-5.036735	EXTRACT
-4.667431	EXTRACTION	-0.1270336
-3.430432	E_M	-0.228961
-3.100111	F	-0.3847849
-5.036735	FA
-5.036735	FACE
-5.036735	FACILITIES
-5.036735	FACILITY
-4.503969	FACTOR	-0.1270336
-5.036735	FADE
-5.036735	FADING
-5.036735	FALL
-5.036735	FALSE
-5.036735	FANATIC
-5.036735	FAR
-4.667431	FAST	-0.1270336
-5.036735	FASTER
-5.036735	FATHER
-5.036735	FEATHER
-2.951727	FEATURE	-0.3994512
-5.036735	FEATURES
-5.036735	FEED
-4.321242	FEEDBACK	-0.1933412
-4.667431	FEELING	-0.1270336
-5.036735	FEW
-5.036735	FI
-5.036735	FIFTY
-5.036735	FIG
-5.036735	FIGHTS
-5.036735	FIGURE
-5.036735	FILL
-5.036735	FILLER
-4.139026	FILTER	-0.2348694
-5.036735	FILTERING
-5.036735	FINAL
-4.667431	FINALLY	-0.1270336
-5.036735	FINITE
-5.036735	FIR
-4.321242	FIRST	-0.165592
-4.321242	FIVE	-0.2777166
-5.036735	FIX
-5.036735	FIXED
-4.667431	FLEXIBLE	-0.1270336
-5.036735	FLIES
-5.036735	FLIGHT
-5.036735	FLIGHTS
-4.667431	FLOORING	-0.1270336
-4.667431	FLOW	-0.1270336
-5.036735	FLUCTUATE
-5.036735	FLY
-4.667431	FOLD	-0.1270336
-5.036735	FOLLOW
-3.70552	FOR	-0.165592
-4.667431	FOREWORD	-0.1270336
-4.667431	FORM	-0.1270336
-5.036735	FORMAL
-3.65387	FORMANT	-0.3249971
-4.667431	FORMAT	-0.1270336
-4.667431	FORMATION	-0.1270336
-5.036735	FORMULATE
-4.503969	FORMULATION	-0.1270336
-5.036735	FORTY
-3.527937	FORWARD	-0.4567182
-4.139026	FOUR	-0.4026554
-3.565997	FOURIER	-0.8797766
-5.036735	FRACTION
-3.764153	FRAME	-0.165592
-5.036735	FRAMEWORK
-5.036735	FRAN
-5.036735	FRANCISCO
-5.036735	FREE
-5.036735	FREQUENCIES
-3.142978	FREQUENCY	-0.2914668
-5.036735	FREQUENT
-5.036735	FRIENDLY
-5.036735	FROM
-4.011057	FRONT	-0.3317794
-5.036735	FRONTEND
-5.036735	FS
-5.036735	FULL
-3.70552	FUNCTION	-0.2196043
-5.036735	FUNCTIONAL
-5.036735	FUNCTIONALITY
-5.036735	FUNDAMENTAL
-4.667431	FURUI	-0.1270336
-5.036735	FUSION
-5.036735	FUTURE
-4.503969	F_F_T	-0.1270336
-5.036735	F_M
-3.350855	G	-0.3924773
-5.036735	GA
-4.503969	GAIN	-0.1270336
-5.036735	GALAXY
-5.036735	GAMA
-5.036735	GAME
-3.402255	GAMMA	-0.3126682
-5.036735	GAP
-5.036735	GATE
-4.667431	GATES	-0.1270336
-4.667431	GAUSS	-0.1270336
-3.243969	GAUSSIAN	-0.3151786
-5.036735	GAY
-3.912339	GENERAL	-0.1542216
-4.321242	GENERALIZABILITY	-0.2777166
-4.321242	GENERALIZABLE	-0.1270336
-4.667431	GENERALIZE	-0.1270336
-5.036735	GENERALIZED
-4.667431	GENERATE	-0.1270336
-5.036735	GENERATION
-4.503969	GENERATOR	-0.1270336
-5.036735	GEOMETRIC
-5.036735	GEOMETRICAL
-5.036735	GEOMETRICALLY
-5.036735	GEORGE
-5.036735	GI
-5.036735	GIBBS
-5.036735	GIRL
-3.073717	GIVEN	-0.2486658
-5.036735	GIVES
-5.036735	GIVING
-4.667431	GLOBAL	-0.1270336
-4.667431	GO	-0.1270336
-4.139026	GOAL	-0.1270336
-5.036735	GOES
-5.036735	GOING
-3.831956	GOOD	-0.4779075
-3.764153	GOOGLE	-0.145885
-5.036735	GRADIENT
-3.912339	GRAM	-0.1994677
-4.139026	GRAMMAR	-0.1757913
-5.036735	GRAMMATIC
-5.036735	GRAMMATICAL
-5.036735	GRAMMER
-4.503969	GRAPH	-0.1270336
-5.036735	GREEDY
-5.036735	GREETING
-5.036735	GRID
-4.503969	GROUP	-0.1270336
-5.036735	GUEST
-4.321242	G_M_M	-0.1933412
-3.492946	H	-0.1994677
-5.036735	HALF
-5.036735	HAMMING
-5.036735	HANDFREE
-4.667431	HANDHELD	-0.1270336
-4.321242	HANDLE	-0.1270336
-5.036735	HANDS
-4.503969	HANDSFREE	-0.1270336
-5.036735	HAPPEN
-5.036735	HARMONIC
-5.036735	HARMONICS
-4.321242	HAT	-0.1933412
-5.036735	HAVING
-5.036735	HE
-5.036735	HEAD
-5.036735	HEARING
-4.667431	HEAVILY	-0.1270336
-5.036735	HELP
-5.036735	HERE
-5.036735	HERTZ
-5.036735	HESITATION
-4.011057	HEURISTIC	-0.1853447
-5.036735	HEURISTICS
-3.350855	HIDDEN	-0.6964748
-5.036735	HIGH
-5.036735	HIGHER
-4.321242	HIGHEST	-0.1270336
-5.036735	HIGHLY
-4.321242	HISTORY	-0.1933412
-5.036735	HOLD
-5.036735	HOLDING
-5.036735	HOMEWORK
-5.036735	HOMOGENEOUS
-5.036735	HONG
-5.036735	HOPKINS
-5.036735	HOUR
-5.036735	HOW
-4.503969	HUMAN	-0.1270336
-5.036735	HYBRID
-4.503969	HYPOTHESIS	-0.2307235
-2.971508	H_M_M	-0.2797126
-3.565997	H_T_K	-0.2439518
-2.88883	I	-0.3394927
-4.667431	IDEA	-0.1270336
-4.321242	IDEAL	-0.1270336
-5.036735	IDENTIFICATION
-5.036735	IDENTIFIES
-5.036735	IDENTIFY
-5.036735	IDENTITY
-5.036735	IF
-5.036735	IM
-5.036735	IMAGINATION
-4.667431	IMMEDIATELY	-0.1270336
-5.036735	IMMUNE
-5.036735	IMPLEMENT
-5.036735	IMPLY
-5.036735	IMPORTANT
-5.036735	IMPOSSIBLE
-5.036735	IMPROVE
-5.036735	IMPULSE
-3.527937	IN	-0.1414615
-5.036735	INCLUDE
-5.036735	INCLUDING
-4.503969	INCOMPLETE	-0.1270336
-5.036735	INCONSISTENCY
-5.036735	INCREASE
-5.036735	INCREASING
-5.036735	INCREMENT
-5.036735	INCREMENTAL
-5.036735	INDEPEN
-5.036735	INDEPENDENCE
-5.036735	INDEPENDENCY
-4.139026	INDEPENDENT	-0.1589231
-4.011057	INDEX	-0.3317794
-4.321242	INDEXING	-0.1933412
-4.667431	INDICATE	-0.1270336
-5.036735	INDICATION
-5.036735	INDISTINGUISHABLE
-5.036735	INDIVIDUAL
-5.036735	INDIVIDUALLY
-4.667431	INEQUALITY	-0.1270336
-5.036735	INFERENCE
-5.036735	INFINITE
-5.036735	INFINITIVE
-5.036735	INFINITY
-5.036735	INFO
-3.527937	INFORMATION	-0.4165871
-4.321242	INITIAL	-0.1270336
-3.430432	INITIALIZATION	-0.2054585
-4.503969	INITIALIZE	-0.1270336
-4.667431	INITIALLY	-0.1270336
-5.036735	INITIATION
-4.321242	INITIATIVE	-0.2110537
-5.036735	INNER
-4.139026	INPUT	-0.1270336
-5.036735	INSENSITIVE
-4.503969	INSERTION	-0.1270336
-5.036735	INSIDE
-4.503969	INSTALL	-0.1270336
-5.036735	INSTANTANEOUS
-4.667431	INSTITUTE	-0.1270336
-5.036735	INSTRUCTION
-4.667431	INTEGER	-0.1270336
-5.036735	INTEGRABLE
-5.036735	INTEGRAL
-5.036735	INTEGRATE
-5.036735	INTEGRATED
-5.036735	INTEGRATION
-4.503969	INTEL	-0.1270336
-4.667431	INTELLIGENT	-0.1270336
-5.036735	INTENTION
-4.011057	INTER	-0.2110537
-4.667431	INTERACT	-0.1270336
-4.667431	INTERACTION	-0.1270336
-5.036735	INTERCONNECTION
-5.036735	INTERDISCIPLINARY
-4.667431	INTEREST	-0.1270336
-4.667431	INTERFACE	-0.1270336
-4.503969	INTERFERENCE	-0.1270336
-5.036735	INTERMEDIATE
-4.503969	INTERNAL	-0.1270336
-4.667431	INTERNET	-0.1270336
-4.321242	INTERPOLATE	-0.2777166
-4.667431	INTERPOLATED	-0.1270336
-3.831956	INTERPOLATION	-0.3571817
-4.667431	INTERPRETATION	-0.1270336
-5.036735	INTERVAL
-5.036735	INTO
-3.831956	INTRA	-0.3107094
-5.036735	INTRODUCTION
-5.036735	INVARIANCE
-5.036735	INVARIANT
-4.667431	INVENTORY	-0.1270336
-4.139026	INVERSE	-0.2079103
-5.036735	INVERSION
-5.036735	INVERT
-5.036735	INVERTIBLE
-5.036735	INVOLVE
-5.036735	ION
-5.036735	IRRELEVANT
-3.764153	IS	-0.1877283
-5.036735	ISOLATE
-4.139026	ISOLATED	-0.2348694
-5.036735	ISSUE
-5.036735	IT
-5.036735	ITEM
-5.036735	ITERATE
-3.831956	ITERATION	-0.1632243
-4.321242	ITERATIVE	-0.1270336
-4.667431	ITERATIVELY	-0.1270336
-5.036735	I_D_F
-5.036735	I_LL
-4.667431	I_O	-0.1270336
-4.667431	I_R	-0.1270336
-3.128214	J	-0.2751231
-5.036735	JASON
-4.667431	JASONS	-0.1270336
-4.321242	JENSEN	-0.2777166
-5.036735	JOB
-5.036735	JOHN
-5.036735	JOHNS
-4.503969	JOINT	-0.1270336
-5.036735	JOINTLY
-5.036735	JUST
-3.086714	K	-0.2608866
-4.667431	KA	-0.1270336
-5.036735	KATZ
-4.667431	KE	-0.1270336
-5.036735	KEEP
-4.139026	KEY	-0.1757913
-3.402255	KEYWORD	-0.1917407
-4.667431	KI	-0.1270336
-5.036735	KILO
-5.036735	KILOHERTZ
-5.036735	KIMCHI
-5.036735	KING
-5.036735	KIT
-5.036735	KNOW
-4.139026	KNOWLEDGE	-0.2110537
-4.667431	KO	-0.1270336
-5.036735	KONG
-4.667431	KU	-0.1270336
-5.036735	KULL
-5.036735	KULLBACK
-3.402255	L	-0.2126905
-4.667431	LA	-0.1270336
-4.667431	LABEL	-0.1270336
-5.036735	LAGRANGE
-3.565997	LAMBDA	-0.2350499
-5.036735	LANCE
-5.036735	LANG
-2.961505	LANGUAGE	-1.165296
-5.036735	LAP
-5.036735	LAPLACE
-5.036735	LARGE
-5.036735	LAST
-4.139026	LATENT	-0.233483
-5.036735	LATERAL
-4.667431	LATTICE	-0.1270336
-5.036735	LAW
-5.036735	LAYER
-5.036735	LEADER
-5.036735	LEADING
-5.036735	LEADS
-4.503969	LEAF	-0.1270336
-5.036735	LEARNING
-5.036735	LEAST
-4.321242	LEFT	-0.1270336
-5.036735	LEIBLER
-4.321242	LENGTH	-0.1589231
-4.667431	LESS	-0.1270336
-4.667431	LETS	-0.1270336
-5.036735	LEVE
-3.70552	LEVEL	-0.1563852
-5.036735	LEXICAL
-4.667431	LEXICON	-0.1270336
-5.036735	LIE
-4.667431	LIKE	-0.1270336
-3.565997	LIKELIHOOD	-0.3313942
-5.036735	LIKELY
-5.036735	LIMIT
-4.667431	LIMITATION	-0.1270336
-5.036735	LIMITED
-5.036735	LIMITING
-5.036735	LIN
-5.036735	LINE
-4.321242	LINEAR	-0.1270336
-5.036735	LINEARITY
-4.667431	LING	-0.1270336
-5.036735	LINGUIST
-3.764153	LINGUISTIC	-0.2554791
-4.503969	LINK	-0.1270336
-4.667431	LINUX	-0.1270336
-5.036735	LIP
-4.321242	LIST	-0.1270336
-4.503969	LISTENING	-0.1270336
-5.036735	LLOYD
-5.036735	LOAD
-4.503969	LOBE	-0.1571851
-4.011057	LOCAL	-0.1270336
-4.321242	LOCALLY	-0.1270336
-5.036735	LOCATE
-5.036735	LOCUS
-3.402255	LOG	-0.1854536
-5.036735	LONG
-5.036735	LOOKING
-5.036735	LOOP
-5.036735	LOPE
-5.036735	LOS
-5.036735	LOSS
-5.036735	LOST
-5.036735	LOS_ANGELES
-4.503969	LOW	-0.1270336
-4.667431	LOWER	-0.1270336
-5.036735	L_B_G
-4.503969	L_D_A	-0.1270336
-3.764153	L_S_A	-0.1507286
-5.036735	L_S_I
-3.073717	M	-0.3345896
-4.667431	MA	-0.1270336
-5.036735	MACHINE
-5.036735	MACHINES
-5.036735	MAGAZINE
-5.036735	MAGICIAN
-5.036735	MAGNITUDE
-5.036735	MAH
-5.036735	MAIL
-3.65387	MAIN	-0.8005954
-5.036735	MAINTAIN
-5.036735	MAJOR
-4.503969	MAKE	-0.2307235
-5.036735	MAL
-5.036735	MAN
-4.667431	MANAGE	-0.1270336
-4.667431	MANAGEMENT	-0.1270336
-4.139026	MANAGER	-0.1270336
-4.503969	MANUAL	-0.1270336
-5.036735	MANUALLY
-5.036735	MANY
-3.831956	MAP	-0.3004299
-4.321242	MAPPING	-0.165592
-5.036735	MAR
-4.667431	MARKOV	-0.1270336
-5.036735	MARY
-5.036735	MASSAGE
-4.321242	MATCH	-0.165592
-5.036735	MATCHED
-4.503969	MATCHING	-0.1270336
-5.036735	MATH
-5.036735	MATHEMATICIAN
-5.036735	MATLAB
-3.565997	MATRIX	-0.2179891
-5.036735	MAX
-4.667431	MAXIMA	-0.1270336
-5.036735	MAXIMIZATION
-4.011057	MAXIMIZE	-0.1958725
-5.036735	MAXIMIZED
-5.036735	MAXIMIZES
-5.036735	MAXIMIZING
-3.764153	MAXIMUM	-0.2043266
-5.036735	MAY
-5.036735	MAYBE
-5.036735	ME
-5.036735	MEA
-3.460565	MEAN	-0.2784751
-4.667431	MEANS	-0.1270336
-4.321242	MEASURE	-0.2777166
-5.036735	MEDIA
-3.70552	MEDIAL	-0.3159158
-5.036735	MEL
-4.503969	MEMORY	-0.1270336
-5.036735	MENTION
-4.011057	MERGE	-0.1589231
-5.036735	MESSAGE
-5.036735	METER
-5.036735	MI
-4.667431	MICRO	-0.1270336
-4.503969	MICROPHONE	-0.2307235
-4.667431	MICROSOFT	-0.1270336
-4.667431	MILLISECOND	-0.1270336
-5.036735	MINI
-5.036735	MINIMAL
-4.503969	MINIMIZE	-0.2307235
-5.036735	MINIMIZING
-4.139026	MINIMUM	-0.2110537
-5.036735	MINING
-5.036735	MINIUM
-5.036735	MINORS
-5.036735	MINUS
-5.036735	MINUTE
-3.565997	MISMATCH	-0.3259516
-5.036735	MISS
-5.036735	MISSING
-5.036735	MIX
-4.503969	MIXED	-0.2307235
-4.139026	MIXTURE	-0.1270336
-5.036735	MODAL
-4.503969	MODE	-0.1270336
-2.864434	MODEL	-0.3252202
-4.503969	MODELING	-0.1270336
-5.036735	MODELS
-5.036735	MODULATING
-4.667431	MODULATION	-0.1270336
-5.036735	MONDAY
-5.036735	MONO
-5.036735	MONOPHONE
-4.321242	MONOTONIC	-0.1270336
-4.503969	MORE	-0.1270336
-5.036735	MORNING
-5.036735	MOSAIC
-4.503969	MOST	-0.1270336
-5.036735	MOURNING
-4.667431	MOUSE	-0.1270336
-5.036735	MOVE
-5.036735	MOVING
-3.912339	MU	-0.4109607
-5.036735	MUCH
-5.036735	MULTI
-5.036735	MULTILAYER
-5.036735	MULTILEVEL
-5.036735	MULTILINGUAL
-4.503969	MULTIMEDIA	-0.1270336
-5.036735	MULTIPASS
-5.036735	MULTIPLE
-5.036735	MULTIPLEXER
-5.036735	MULTIPLICATION
-5.036735	MULTIPLIER
-5.036735	MUSIC
-4.139026	MUSICAL	-0.4026554
-5.036735	MUTE
-5.036735	MUTUAL
-5.036735	MY
-3.764153	M_A_P	-0.1950271
-4.321242	M_C_E	-0.1270336
-3.243969	M_F_C_C	-0.2060265
-5.036735	M_I_T
-5.036735	M_L
-4.503969	M_L_L_R	-0.1270336
-5.036735	M_M_I_E
-5.036735	M_P_E
-2.6314	N	-0.4395854
-4.667431	NA	-0.1270336
-4.503969	NAME	-0.1270336
-5.036735	NARROW
-4.667431	NASAL	-0.1270336
-5.036735	NATURAL
-5.036735	NATURE
-5.036735	NEAREST
-5.036735	NEED
-5.036735	NEGATIVE
-5.036735	NEGLIGIBLE
-5.036735	NEIGHBOR
-4.667431	NEIGHBORING	-0.1270336
-5.036735	NESS
-5.036735	NET
-5.036735	NETWORK
-4.503969	NEUTRAL	-0.1270336
-4.667431	NEVER	-0.1270336
-3.912339	NEW	-0.4779075
-4.503969	NEXT	-0.1270336
-3.128214	NGRAM	-0.3156591
-5.036735	NINE
-5.036735	NO
-4.139026	NODE	-0.1270336
-3.048835	NOISE	-0.2469926
-4.667431	NOISY	-0.1270336
-4.667431	NON	-0.1270336
-5.036735	NONE
-5.036735	NONLINEAR
-4.667431	NONZERO	-0.1270336
-5.036735	NOR
-5.036735	NORMAL
-5.036735	NORMALIZATION
-4.667431	NORMALIZE	-0.1270336
-4.667431	NORMALIZED	-0.1270336
-5.036735	NOT
-5.036735	NOTATION
-5.036735	NOTE
-4.667431	NOTEBOOK	-0.1270336
-5.036735	NOUN
-4.139026	NUCLEAR	-0.3317795
-3.70552	NUMBER	-0.1902918
-5.036735	NUMBERS
-5.036735	NYQUIST
-5.036735	N_T_U
-3.142978	O	-0.41518
-5.036735	OB
-4.503969	OBJECT	-0.2307235
-5.036735	OBJECTIVE
-5.036735	OBSERVABLE
-3.527937	OBSERVATION	-0.1917407
-4.011057	OBSERVE	-0.2527175
-4.139026	OBSERVED	-0.1270336
-5.036735	OCCUPATION
-4.503969	OCCUR	-0.1270336
-5.036735	OCCURS
-5.036735	ODD
-3.207633	OF	-0.2214379
-5.036735	OFF
-5.036735	OFFER
-5.036735	OFFICE
-3.174103	OKAY	-0.3031708
-3.402255	OMEGA	-0.3616965
-3.912339	ON	-0.1617014
-5.036735	ONCE
-3.128214	ONE	-0.2311883
-5.036735	ONLINE
-4.139026	ONLY	-0.2110537
-5.036735	OP
-4.139026	OPEN	-0.2348694
-5.036735	OPENING
-5.036735	OPERATE
-5.036735	OPERATING
-5.036735	OPERATION
-5.036735	OPERATIONAL
-5.036735	OPERATOR
-5.036735	OPPENHEIM
-5.036735	OPT
-4.503969	OPTIMAL	-0.2307235
-5.036735	OPTIMALITY
-5.036735	OPTIMIZATION
-4.667431	OPTIMIZE	-0.1270336
-4.503969	OPTIMUM	-0.1933412
-4.321242	OPTIONAL	-0.1933412
-4.139026	OR	-0.1757913
-4.139026	ORDER	-0.1270336
-4.321242	ORGANIZATION	-0.2777166
-4.503969	ORGANIZE	-0.1270336
-5.036735	ORIGIN
-5.036735	ORTHO
-4.667431	ORTHOGONAL	-0.1270336
-4.503969	ORTHONORMAL	-0.2307235
-5.036735	OSCILLATORY
-5.036735	OT
-5.036735	OTHER
-5.036735	OTHERS
-4.667431	OTHERWISE	-0.1270336
-4.503969	OUT	-0.1270336
-5.036735	OUTLINE
-4.667431	OUTPUT	-0.1270336
-5.036735	OUTSIDE
-4.503969	OVER	-0.1270336
-5.036735	OVERALL
-4.667431	OVERHEAD	-0.1270336
-4.667431	OVERLAP	-0.1270336
-5.036735	OVERLAPPED
-4.321242	OVERLAPPING	-0.1933412
-5.036735	OVERSHOOT
-4.503969	OVERVIEW	-0.1270336
-5.036735	O_K
-3.607715	O_O_V	-0.2390863
-3.100111	P	-0.3607627
-4.667431	PACKAGE	-0.1270336
-5.036735	PACKET
-5.036735	PAGE
-4.667431	PAIR	-0.1270336
-5.036735	PAIRED
-3.607715	PAPER	-0.1767013
-5.036735	PARA
-4.503969	PARALLEL	-0.2307235
-3.764153	PARAMETER	-0.165592
-4.667431	PARAMETERS	-0.1270336
-5.036735	PARSING
-4.321242	PART	-0.1757913
-4.503969	PARTIAL	-0.2307235
-5.036735	PARTICULAR
-5.036735	PARTITION
-4.667431	PARTS	-0.1270336
-4.667431	PASS	-0.1270336
-5.036735	PASSWORD
-4.667431	PAST	-0.1270336
-5.036735	PAT
-5.036735	PATENT
-3.304899	PATH	-0.2259357
-4.139026	PATTERN	-0.2334831
-5.036735	PAUSE
-3.912339	PEAK	-0.1776131
-5.036735	PEAKS
-4.503969	PER	-0.1270336
-5.036735	PERCENTAGE
-5.036735	PERCEPTION
-4.503969	PERCEPTUAL	-0.1270336
-4.667431	PERCEPTUALLY	-0.1270336
-5.036735	PERCIPIENT
-5.036735	PERFORM
-4.503969	PERFORMANCE	-0.2307235
-4.667431	PERIMETER	-0.1270336
-5.036735	PERIOD
-5.036735	PERIODIC
-3.460565	PERPLEXITY	-0.1943897
-5.036735	PERSONAL
-5.036735	PET
-3.527937	PHASE	-0.1902918
-5.036735	PHENOMENON
-3.912339	PHI	-0.3257278
-2.981747	PHONE	-0.2821401
-3.565997	PHONEME	-0.2132032
-4.503969	PHONETIC	-0.2307235
-4.503969	PHRASE	-0.1933412
-4.667431	PHRASES	-0.1270336
-5.036735	PHY
-4.011057	PI	-0.1270336
-4.667431	PICK	-0.1270336
-5.036735	PICKS
-5.036735	PICTURE
-5.036735	PILOT
-5.036735	PINE
-3.764153	PITCH	-0.1716933
-5.036735	PLACE
-5.036735	PLAN
-5.036735	PLANE
-4.667431	PLOT	-0.1270336
-5.036735	PLUM
-4.667431	PLUS	-0.1270336
-5.036735	PO
-5.036735	POCKET
-4.667431	POINT	-0.1270336
-4.503969	POINTER	-0.2307235
-5.036735	POINTS
-5.036735	POL
-5.036735	POLE
-5.036735	POLES
-5.036735	POLITICAL
-5.036735	POLY
-5.036735	POLYNOMIAL
-4.667431	POLYSYLLABIC	-0.1270336
-5.036735	PORT
-5.036735	PORTABILITY
-5.036735	PORTABLE
-5.036735	POS
-5.036735	POSITION
-5.036735	POSITIVE
-5.036735	POSSIBILITY
-4.667431	POSSIBLE	-0.1270336
-4.503969	POSTERIOR	-0.1757913
-5.036735	POWE
-5.036735	POWER
-5.036735	POWERFUL
-4.321242	POWERPOINT	-0.165592
-5.036735	PRACTICAL
-5.036735	PRACTICALLY
-5.036735	PRANGE
-4.011057	PRE	-0.165592
-4.667431	PREC	-0.1270336
-5.036735	PRECI
-5.036735	PRECISE
-5.036735	PRECISELY
-3.492946	PRECISION	-0.1617014
-5.036735	PREDEFINED
-5.036735	PREDICT
-5.036735	PREFER
-5.036735	PREPARE
-4.321242	PREPARED	-0.1270336
-5.036735	PRESENT
-5.036735	PREVIOUS
-3.912339	PRIMARY	-0.1542216
-3.912339	PRIME	-0.2609327
-5.036735	PRIN
-5.036735	PRINCIPAL
-4.503969	PRINCIPLE	-0.1270336
-4.321242	PRIOR	-0.2777166
-4.503969	PRIVATE	-0.1270336
-5.036735	PRO
-5.036735	PROB
-5.036735	PROBABILISTIC
-5.036735	PROBABILITIES
-3.402255	PROBABILITY	-0.2952012
-4.667431	PROBABLE	-0.1270336
-5.036735	PROBATIVE
-3.460565	PROBLEM	-0.222703
-5.036735	PROCEDURE
-4.011057	PROCESS	-0.1958725
-5.036735	PROCESSES
-4.139026	PROCESSING	-0.1950271
-5.036735	PROCESSOR
-5.036735	PRODUCT
-5.036735	PROFESSIONAL
-5.036735	PROGRAMMING
-5.036735	PROGRESS
-4.667431	PROJECT	-0.1270336
-4.667431	PROMPT	-0.1270336
-5.036735	PRON
-4.503969	PRONUNCIATION	-0.1270336
-5.036735	PROOF
-5.036735	PROP
-5.036735	PROPAGATE
-5.036735	PROPAGATION
-5.036735	PROPER
-5.036735	PROPERLY
-5.036735	PROPERTY
-5.036735	PROSODY
-5.036735	PROSPERITY
-5.036735	PROTECTION
-5.036735	PROVE
-5.036735	PROVIDE
-5.036735	PROVIDER
-5.036735	PRUNE
-4.139026	PRUNING	-0.1270336
-5.036735	PSEUDO
-4.667431	PUBLIC	-0.1270336
-5.036735	PULS
-4.667431	PULSE	-0.1270336
-5.036735	PULSES
-4.321242	PURITY	-0.2777166
-4.503969	PURPOSE	-0.1270336
-5.036735	PURPOSELY
-5.036735	PUSH
-4.503969	P_C	-0.1270336
-3.607715	P_C_A	-0.199903
-4.667431	P_C_M	-0.1270336
-4.139026	P_D_A	-0.1757913
-5.036735	P_L_S_A
-5.036735	P_L_S_I
-5.036735	P_M
-2.923649	Q	-0.3548551
-4.667431	QUALITY	-0.1270336
-4.667431	QUANTITY	-0.1270336
-3.831956	QUANTIZATION	-0.3159158
-5.036735	QUE
-4.503969	QUEFRENCY	-0.2307235
-3.831956	QUERY	-0.1757913
-4.667431	QUESTION	-0.1270336
-5.036735	QUESTIONS
-3.263344	R	-0.2600152
-5.036735	RA
-5.036735	RADIATION
-5.036735	RADIO
-5.036735	RAINY
-5.036735	RAMP
-5.036735	RAN
-3.527937	RANDOM	-0.3571818
-5.036735	RANDOMLY
-4.503969	RANDOMNESS	-0.2307235
-4.011057	RANGE	-0.165592
-5.036735	RAPID
-5.036735	RARE
-5.036735	RASTA
-4.139026	RATE	-0.1958725
-3.831956	RATIO	-0.1563852
-4.667431	RATION	-0.1270336
-5.036735	RATIONAL
-5.036735	RATIONALLY
-5.036735	RAW
-5.036735	RAY
-5.036735	RE
-4.321242	READ	-0.2777166
-4.503969	READING	-0.2307235
-3.65387	REAL	-0.3710942
-4.667431	REALIZATION	-0.1270336
-5.036735	REALIZE
-4.667431	REALLY	-0.1270336
-5.036735	REAM
-5.036735	REASON
-5.036735	REASSERT
-4.667431	REC	-0.1270336
-3.607715	RECALL	-0.1995845
-5.036735	RECEIVER
-4.667431	RECEPTION	-0.1270336
-5.036735	RECIPROCAL
-3.304899	RECOGNITION	-0.2420859
-3.831956	RECOGNIZE	-0.1776131
-4.503969	RECOGNIZED	-0.1270336
-4.667431	RECOGNIZER	-0.1270336
-4.667431	RECOMMEND	-0.1270336
-5.036735	RECONSTRUCT
-5.036735	RECONSTRUCTED
-5.036735	RECORD
-4.139026	RECOVER	-0.1757913
-5.036735	RECOVERING
-4.321242	RECOVERY	-0.1933412
-4.667431	RECTANGLE	-0.1270336
-4.321242	RECTANGULAR	-0.1933412
-3.912339	REDUCE	-0.290235
-5.036735	REDUCED
-5.036735	REDUCING
-4.667431	REDUCTION	-0.1270336
-5.036735	REDUNDANCY
-5.036735	REDUNDANT
-4.667431	REFER	-0.1270336
-3.350855	REFERENCE	-0.2123752
-5.036735	REFERENCES
-5.036735	REFLECT
-5.036735	REFORM
-5.036735	REGARDLESS
-5.036735	REGION
-5.036735	REGRESS
-4.667431	REGRESSION	-0.1270336
-5.036735	REJECT
-5.036735	REJECTION
-5.036735	RELATE
-4.139026	RELATION	-0.3317795
-4.667431	RELATIONSHIP	-0.1270336
-4.667431	RELATIVE	-0.1270336
-5.036735	RELATIVELY
-4.667431	RELEVANCE	-0.1270336
-4.503969	RELEVANT	-0.1270336
-4.321242	RELIABILITY	-0.1270336
-4.011057	RELIABLE	-0.1270336
-5.036735	RELY
-4.667431	REMAINING	-0.1270336
-5.036735	REMAINS
-4.667431	REMOTE	-0.1270336
-5.036735	REMOVAL
-5.036735	REORGANIZE
-5.036735	REPAIR
-4.667431	REPEAT	-0.1270336
-5.036735	REPEATEDLY
-5.036735	REPETITION
-5.036735	REPLACE
-4.667431	REPORT	-0.1270336
-5.036735	REPRESENT
-3.70552	REPRESENTATION	-0.3159158
-5.036735	REPRODUCE
-5.036735	REPRODUCED
-4.667431	REQUEST	-0.1270336
-4.667431	REQUIREMENT	-0.1270336
-4.667431	REQUIREMENTS	-0.1270336
-5.036735	RES
-5.036735	RESCORE
-5.036735	RESCORING
-4.667431	RESEARCH	-0.1270336
-5.036735	RESEQUENCING
-5.036735	RESERVE
-4.667431	RESOLUTION	-0.1270336
-5.036735	RESOURCE
-5.036735	RESPECT
-4.667431	RESPONSE	-0.1270336
-5.036735	REST
-5.036735	RESTRUCTURE
-4.667431	RESULT	-0.1270336
-4.667431	RESULTS	-0.1270336
-5.036735	RETRANSMISSION
-3.65387	RETRIEVAL	-0.1729501
-5.036735	RETURN
-5.036735	REVERSAL
-5.036735	REVERSE
-5.036735	REVERT
-4.667431	REVIEW	-0.1270336
-5.036735	REVISIT
-5.036735	REWRITE
-4.321242	RIGHT	-0.1757913
-5.036735	RIGHT'S
-5.036735	RING
-5.036735	RINGING
-5.036735	RIPPED
-5.036735	RIPPLE
-5.036735	RISE
-5.036735	RIVER
-4.667431	ROBUST	-0.1270336
-4.139026	ROBUSTNESS	-0.4026554
-5.036735	ROLE
-5.036735	ROLL
-5.036735	ROOT
-5.036735	ROTATE
-5.036735	ROTATION
-5.036735	ROUGHLY
-3.764153	ROW	-0.2690495
-4.011057	RULE	-0.1958725
-5.036735	RUN
-5.036735	RUNNING
-5.036735	R_G_B
-3.190545	S	-0.3626776
-5.036735	SACRAMENTAL
-5.036735	SAID
-4.667431	SAME	-0.1270336
-3.565997	SAMPLE	-0.2439518
-5.036735	SAMPLER
-5.036735	SAMPLES
-4.321242	SAMPLING	-0.1270336
-5.036735	SAN
-3.70552	SAN_FRANCISCO	-0.1700955
-5.036735	SARS
-5.036735	SAT
-5.036735	SATURATE
-5.036735	SATURATED
-5.036735	SATURATION
-5.036735	SAW
-5.036735	SAY
-4.503969	SCALAR	-0.1933412
-4.139026	SCALE	-0.1270336
-5.036735	SCALED
-4.503969	SCALING	-0.2307235
-5.036735	SCAN
-5.036735	SCATTER
-5.036735	SCATTERED
-5.036735	SCATTERING
-5.036735	SCHAFER
-5.036735	SCHEDULE
-4.503969	SCORE	-0.1270336
-5.036735	SCORES
-5.036735	SCORING
-5.036735	SCRIP
-4.503969	SCRIPT	-0.1270336
-3.492946	SEARCH	-0.3954449
-4.667431	SECOND	-0.1270336
-5.036735	SECTION
-5.036735	SEE
-5.036735	SEEK
-4.667431	SEGMENT	-0.1270336
-4.321242	SEGMENTAL	-0.2777166
-5.036735	SEGMENTATION
-4.667431	SELECT	-0.1270336
-5.036735	SELECTED
-5.036735	SELECTION
-5.036735	SELECTIVE
-3.65387	SEMANTIC	-0.2084076
-3.70552	SEMANTICS	-0.2287657
-4.667431	SENSE	-0.1270336
-5.036735	SENSITIVE
-4.667431	SENSITIVITY	-0.1270336
-4.503969	SENTENCE	-0.1270336
-5.036735	SEPARATE
-4.667431	SEPARATED	-0.1270336
-4.667431	SEPTEMBER	-0.1270336
-3.607715	SEQUENCE	-0.1645887
-5.036735	SEQUENCING
-5.036735	SEQUENTIAL
-4.667431	SER	-0.1270336
-4.503969	SERIES	-0.1270336
-5.036735	SERIOUS
-5.036735	SERVE
-3.831956	SERVER	-0.165592
-5.036735	SERVICE
-4.503969	SET	-0.1270336
-5.036735	SETTLE
-5.036735	SETTLING
-5.036735	SEVEN
-5.036735	SEVER
-4.321242	SH	-0.1933412
-5.036735	SHAPE
-5.036735	SHAPING
-4.503969	SHARE	-0.1270336
-5.036735	SHARED
-4.667431	SHARING	-0.1270336
-5.036735	SHARPENING
-5.036735	SHE
-4.503969	SHIFT	-0.1270336
-5.036735	SHORT
-4.503969	SHOULD	-0.2307235
-4.667431	SHOW	-0.1270336
-5.036735	SHOWN
-5.036735	SI
-3.565997	SIDE	-0.8797766
-5.036735	SIDED
-5.036735	SIDES
-5.036735	SIFT
-5.036735	SIFTING
-4.667431	SIG	-0.1270336
-5.036735	SIGMA
-5.036735	SIGMOID
-5.036735	SIGN
-3.243969	SIGNAL	-0.1809791
-5.036735	SIGNALS
-4.011057	SILENCE	-0.165592
-5.036735	SILENT
-5.036735	SIMILAR
-5.036735	SIMILARITY
-5.036735	SIMPLE
-5.036735	SIMPLER
-5.036735	SIMULATION
-5.036735	SIMULTANEOUS
-5.036735	SIN
-5.036735	SINE
-4.667431	SING	-0.1270336
-4.503969	SINGLE	-0.1270336
-4.667431	SINGULAR	-0.1270336
-5.036735	SINGULARITY
-4.667431	SINK	-0.1270336
-5.036735	SINUSOID
-5.036735	SISTER
-5.036735	SITE
-5.036735	SITTING
-5.036735	SIX
-5.036735	SIXTEEN
-5.036735	SIZE
-5.036735	SKELETON
-5.036735	SLIDE
-5.036735	SLOT
-5.036735	SLOTS
-5.036735	SLOW
-4.139026	SMALL	-0.4026553
-5.036735	SMALLER
-5.036735	SMOOTH
-3.831956	SMOOTHING	-0.2165833
-5.036735	SMOOTHLY
-5.036735	SO
-4.667431	SOFT	-0.1270336
-4.667431	SOFTWARE	-0.1270336
-4.011057	SOLUTION	-0.1589231
-4.667431	SOLVED	-0.1270336
-4.503969	SOME	-0.1270336
-4.667431	SOMEHOW	-0.1270336
-5.036735	SOMEWHERE
-4.667431	SONG	-0.1270336
-5.036735	SORT
-5.036735	SOUND
-5.036735	SOUNDS
-4.503969	SOURCE	-0.1270336
-4.321242	SPACE	-0.1933412
-5.036735	SPACED
-5.036735	SPARSE
-4.503969	SPARSENESS	-0.1270336
-5.036735	SPEA
-5.036735	SPEAK
-5.036735	SPEAKE
-3.142978	SPEAKER	-0.3202258
-5.036735	SPEAKERS
-4.503969	SPEAKING	-0.2307235
-4.667431	SPECIAL	-0.1270336
-4.667431	SPECIFIC	-0.1270336
-4.503969	SPECIFY	-0.1270336
-5.036735	SPECTER
-5.036735	SPECTRA
-3.912339	SPECTRAL	-0.3374863
-5.036735	SPECTROGRAM
-4.503969	SPECTRUM	-0.1270336
-3.225421	SPEECH	-0.3105704
-5.036735	SPEEDING
-5.036735	SPELL
-5.036735	SPELLING
-5.036735	SPICE
-4.667431	SPLIT	-0.1270336
-4.503969	SPOKEN	-0.1270336
-4.503969	SPONTANEOUS	-0.1270336
-5.036735	SPOT
-4.503969	SPOTTING	-0.1270336
-5.036735	SPRAYED
-4.011057	SPREAD	-0.1270336
-5.036735	SQUARE
-5.036735	SRI
-5.036735	STABILITY
-5.036735	STABILIZATION
-4.667431	STABLE	-0.1270336
-4.321242	STAGE	-0.1270336
-5.036735	STAND
-4.667431	STANDS	-0.1270336
-4.667431	STANFORD	-0.1270336
-4.667431	STAR	-0.1270336
-5.036735	START
-4.667431	STARTING	-0.1270336
-5.036735	STAT
-2.841335	STATE	-0.3330556
-5.036735	STATES
-5.036735	STATIONARY
-5.036735	STATISTIC
-5.036735	STATISTICS
-5.036735	STEEPEST
-4.667431	STEP	-0.1270336
-5.036735	STOCHASTIC
-5.036735	STOP
-5.036735	STREAM
-5.036735	STREET
-5.036735	STRIP
-3.912339	STRUCTURE	-0.167015
-5.036735	STRUCTURED
-4.667431	STYLE	-0.1270336
-4.011057	SUB	-0.1589231
-5.036735	SUBJECT
-5.036735	SUBPROBLEM
-5.036735	SUBSET
-4.503969	SUBSPACE	-0.2307235
-5.036735	SUBSTITUTE
-4.667431	SUBSTITUTION	-0.1270336
-4.503969	SUBTRACTION	-0.1270336
-5.036735	SUBWORD
-4.503969	SUCCESS	-0.2307235
-5.036735	SUCCESSFUL
-4.667431	SUCCESSFULLY	-0.1270336
-5.036735	SUCH
-4.667431	SUITABLE	-0.1270336
-5.036735	SUM
-5.036735	SUMMA
-5.036735	SUMMARIZE
-3.65387	SUMMARY	-0.2422761
-3.912339	SUMMATION	-0.2334831
-5.036735	SUNDAY
-4.503969	SUNNY	-0.2307235
-5.036735	SUPER
-5.036735	SUPERPOSITION
-5.036735	SUPERVISED
-4.321242	SUPPOSE	-0.1757913
-5.036735	SUPPOSED
-5.036735	SUPPRESS
-4.667431	SURE	-0.1270336
-5.036735	SURPRISE
-4.503969	SWITCH	-0.1270336
-4.667431	SWITCHING	-0.1270336
-3.086714	SYLLABLE	-0.2500013
-4.503969	SYLLABLES	-0.2307235
-4.667431	SYMBOL	-0.1270336
-4.667431	SYMBOLIC	-0.1270336
-5.036735	SYMBOLS
-4.503969	SYMMETRIC	-0.1270336
-5.036735	SYMMETRY
-5.036735	SYNCHRONIZATION
-5.036735	SYNCHRONIZE
-5.036735	SYNCHRONOUS
-4.667431	SYNTACTIC	-0.1270336
-5.036735	SYNTHESIS
-4.667431	SYSTEM	-0.1270336
-5.036735	SYSTEMS
-4.667431	S_A_T	-0.1270336
-5.036735	S_D
-5.036735	S_I
-4.503969	S_R_I	-0.1270336
-4.321242	S_R_I_L_M	-0.1270336
-5.036735	S_V_D
-5.036735	S_V_M
-2.735399	T	-0.422482
-4.667431	TABLE	-0.1270336
-4.503969	TAG	-0.1270336
-4.667431	TAGGING	-0.1270336
-5.036735	TAIPEI
-4.667431	TAKE	-0.1270336
-5.036735	TAKEN
-5.036735	TALK
-5.036735	TAO
-4.667431	TAR	-0.1270336
-5.036735	TARGET
-4.667431	TASK	-0.1270336
-5.036735	TATE
-5.036735	TAU
-3.912339	TAYLOR	-0.5787466
-5.036735	TEA
-5.036735	TEAM
-4.667431	TEAMWORK	-0.1270336
-5.036735	TECH
-5.036735	TECHNOLOGIES
-5.036735	TECHNOLOGY
-4.667431	TEL	-0.1270336
-5.036735	TELEPHONE
-5.036735	TELL
-4.139026	TEMPLATE	-0.183226
-5.036735	TEMPORAL
-3.607715	TERM	-0.2850041
-5.036735	TERMINAL
-5.036735	TERMS
-5.036735	TERNS
-3.460565	TEST	-0.2025735
-3.764153	TESTING	-0.3297015
-3.764153	TEXT	-0.2340371
-4.667431	THAN	-0.1270336
-5.036735	THAT
-3.607715	THE	-0.1757913
-4.667431	THEOREM	-0.1270336
-5.036735	THEORETICAL
-3.831956	THEORY	-0.1507286
-5.036735	THERE
-3.607715	THETA	-0.2386402
-4.321242	THEY	-0.1933412
-5.036735	THING
-5.036735	THINK
-5.036735	THIRD
-5.036735	THIRTY
-4.321242	THIS	-0.2777166
-5.036735	THOU
-4.667431	THREE	-0.1270336
-3.764153	THRESHOLD	-0.145885
-5.036735	THROUGH
-5.036735	TI
-5.036735	TIE
-5.036735	TILTS
-3.460565	TIME	-0.2594047
-5.036735	TIMES
-5.036735	TIMING
-3.912339	TITLE	-0.290235
-3.70552	TO	-0.145885
-5.036735	TODAY
-5.036735	TOGETHER
-5.036735	TOLD
-5.036735	TOMORROW
-4.503969	TONE	-0.1270336
-5.036735	TOO
-4.667431	TOOL	-0.1270336
-4.321242	TOOLKIT	-0.1270336
-4.321242	TOP	-0.1933412
-3.492946	TOPIC	-0.3969779
-5.036735	TOTAL
-5.036735	TOUR
-5.036735	TOW
-5.036735	TOY
-5.036735	TRACE
-5.036735	TRACK
-4.667431	TRACT	-0.1270336
-5.036735	TRADE
-4.503969	TRADEOFF	-0.1270336
-2.981747	TRAIN	-0.3188999
-4.667431	TRAINABILITY	-0.1270336
-4.011057	TRAINABLE	-0.2628193
-4.667431	TRAINED	-0.1270336
-3.243969	TRAINING	-0.3410789
-5.036735	TRAJECTORY
-5.036735	TRAN
-4.667431	TRANS	-0.1270336
-5.036735	TRANSACTION
-5.036735	TRANSCRIBE
-4.321242	TRANSCRIPTION	-0.1933412
-5.036735	TRANSDUCER
-5.036735	TRANSFER
-3.460565	TRANSFORM	-0.2089374
-5.036735	TRANSFORMATION
-3.912339	TRANSITION	-0.3714853
-5.036735	TRANSITIONS
-5.036735	TRANSLATE
-5.036735	TRANSLATION
-4.667431	TRANSMISSION	-0.1270336
-5.036735	TRANSMIT
-5.036735	TRANSMITTER
-5.036735	TRANSPARENT
-5.036735	TRANSPORT
-3.912339	TRANSPOSE	-0.1818464
-4.503969	TRAVEL	-0.1270336
-5.036735	TRAVERSAL
-5.036735	TRAVERSE
-3.65387	TREE	-0.2426293
-5.036735	TREES
-5.036735	TRI
-5.036735	TRIANGULAR
-5.036735	TRIED
-5.036735	TRIGGER
-3.912339	TRIGRAM	-0.290235
-3.073717	TRIPHONE	-0.3568555
-5.036735	TRIPLE
-5.036735	TRIPLET
-5.036735	TRUE
-5.036735	TRUNCATE
-5.036735	TRUNCATION
-5.036735	TRYING
-5.036735	TS
-5.036735	TUESDAY
-4.667431	TURING	-0.1270336
-3.831956	TURN	-0.2196861
-4.503969	TURNS	-0.2307235
-4.503969	TUTOR	-0.1270336
-3.243969	TWO	-0.2461484
-5.036735	TYPE
-5.036735	TYPES
-4.667431	TYPICAL	-0.1270336
-5.036735	T_F
-5.036735	T_F_I_D_F
-5.036735	T_T_S
-3.460565	U	-0.3206332
-5.036735	UBIQUITOUS
-4.667431	UN	-0.1270336
-4.321242	UNCERTAINTY	-0.2110537
-5.036735	UNCHANGED
-5.036735	UNCONSTRAINED
-5.036735	UNCORRELATED
-5.036735	UNDEFINED
-4.321242	UNDERLINE	-0.2348695
-4.667431	UNDERSTAND	-0.1270336
-3.831956	UNDERSTANDING	-0.183226
-4.139026	UNDESIRED	-0.4026554
-5.036735	UNI
-5.036735	UNIFIED
-4.503969	UNIFORM	-0.2307235
-5.036735	UNIFORMLY
-5.036735	UNIFY
-4.321242	UNIGRAM	-0.1270336
-5.036735	UNILATERAL
-5.036735	UNINTERRUPTED
-5.036735	UNION
-5.036735	UNIQUE
-5.036735	UNIQUELY
-3.912339	UNIT	-0.1853448
-5.036735	UNITED
-4.011057	UNITS	-0.1542216
-4.667431	UNIX	-0.1270336
-4.667431	UNKNOWN	-0.1270336
-5.036735	UNLIKELY
-5.036735	UNLIMITED
-5.036735	UNNECESSARY
-3.430432	UNSEEN	-0.4325775
-5.036735	UNSTABLE
-5.036735	UNSTRUCTURED
-5.036735	UNSUPERVISED
-5.036735	UNTIL
-3.492946	UNVOICED	-0.3391861
-5.036735	UNWRAP
-4.321242	UP	-0.1757913
-5.036735	UPDATE
-5.036735	UPDATED
-5.036735	UPPER
-5.036735	UR
-5.036735	US
-5.036735	USE
-3.061098	USER	-0.1777918
-5.036735	USING
-4.139026	UTTERANCE	-0.4026554
-3.350855	V	-0.3925714
-4.667431	VALLEY	-0.1270336
-4.011057	VALUE	-0.1270336
-5.036735	VALUES
-5.036735	VARI
-5.036735	VARIABILITY
-3.912339	VARIABLE	-0.1945688
-5.036735	VARIABLES
-4.011057	VARIANCE	-0.1700955
-5.036735	VARIANT
-5.036735	VARIATE
-4.321242	VARIATION	-0.1270336
-5.036735	VARIETY
-5.036735	VARY
-5.036735	VARYING
-5.036735	VEC
-4.667431	VECT	-0.1270336
-3.061098	VECTOR	-0.3075947
-5.036735	VECTORS
-4.667431	VERIFICATION	-0.1270336
-5.036735	VERIFIED
-5.036735	VERIFY
-4.667431	VERSION	-0.1270336
-4.667431	VERY	-0.1270336
-5.036735	VI
-5.036735	VIDEO
-4.667431	VIEW	-0.1270336
-5.036735	VIRTUAL
-5.036735	VISIT
-3.460565	VITERBI	-0.2397931
-4.321242	VOCABULARY	-0.1270336
-3.831956	VOCAL	-0.6456934
-4.667431	VOICE	-0.1270336
-3.460565	VOICED	-0.3145064
-5.036735	VOW
-5.036735	VOWEL
-5.036735	V_A_D
-3.831956	V_Q	-0.2196861
-3.100111	W	-0.3458357
-5.036735	WAITED
-5.036735	WAITING
-5.036735	WALKING
-5.036735	WARP
-4.667431	WARPING	-0.1270336
-5.036735	WAVE
-4.667431	WAVEFORM	-0.1270336
-5.036735	WAY
-5.036735	WAYS
-4.503969	WE	-0.1270336
-5.036735	WEAK
-5.036735	WEB
-5.036735	WEDNESDAY
-5.036735	WEEK
-5.036735	WEEKDAY
-5.036735	WEEKLY
-3.565997	WEIGHT	-0.2690495
-5.036735	WEIGHTED
-5.036735	WEIGHTING
-5.036735	WEIGHTS
-4.667431	WELCH	-0.1270336
-5.036735	WELL
-5.036735	WHAT
-5.036735	WHATEVER
-5.036735	WHEN
-5.036735	WHENEVER
-4.667431	WHERE	-0.1270336
-5.036735	WHICH
-4.667431	WHISPER	-0.1270336
-4.321242	WHITE	-0.2777166
-5.036735	WHO
-5.036735	WHY
-4.667431	WIDE	-0.1270336
-5.036735	WIDTH
-5.036735	WILL
-5.036735	WIN
-5.036735	WIND
-3.65387	WINDOW	-0.1846374
-4.503969	WINDOWS	-0.1270336
-3.70552	WIRELESS	-0.145885
-5.036735	WISH
-4.011057	WITH	-0.1270336
-5.036735	WITHIN
-5.036735	WOP
-2.778606	WORD	-0.2790929
-3.764153	WORDS	-0.3402467
-5.036735	WORK
-5.036735	WORKING
-4.667431	WORRY	-0.1270336
-4.667431	WOULD	-0.1270336
-5.036735	WRAPPING
-5.036735	WU
-2.812332	X	-0.4411381
-5.036735	XI
-3.158262	Y	-0.2206439
-4.503969	YA	-0.1270336
-5.036735	YEAH
-5.036735	YES
-5.036735	YI
-5.036735	YOU
-5.036735	YOUR
-3.350855	Z	-0.320177
-3.831956	ZERO	-0.4779075
-5.036735	ZEROS
-5.036735	ZETA
-3.831956	ㄅ	-0.2196861
-4.667431	ㄆ	-0.1270336
-4.667431	ㄇ	-0.1270336
-4.667431	ㄈ	-0.1270336
-4.321242	ㄉ	-0.1933412
-4.503969	ㄊ	-0.1270336
-4.667431	ㄋ	-0.1270336
-4.667431	ㄌ	-0.1270336
-4.667431	ㄍ	-0.1270336
-4.667431	ㄎ	-0.1270336
-4.667431	ㄏ	-0.1270336
-4.503969	ㄐ	-0.1270336
-4.667431	ㄑ	-0.1270336
-4.011057	ㄒ	-0.1270336
-4.667431	ㄓ	-0.1270336
-5.036735	ㄔ
-4.011057	ㄕ	-0.165592
-5.036735	ㄖ
-4.667431	ㄗ	-0.1270336
-5.036735	ㄘ
-4.503969	ㄙ	-0.1270336
-3.460565	ㄚ	-0.2298691
-4.667431	ㄛ	-0.1270336
-3.831956	ㄜ	-0.1270336
-4.667431	ㄝ	-0.1270336
-5.036735	ㄞ
-4.503969	ㄟ	-0.1270336
-4.503969	ㄠ	-0.1270336
-5.036735	ㄡ
-4.139026	ㄢ	-0.1270336
-3.912339	ㄣ	-0.233483
-4.667431	ㄤ	-0.1270336
-4.011057	ㄥ	-0.1542216
-4.667431	ㄦ	-0.1270336
-4.011057	ㄧ	-0.1589231
-3.402255	ㄨ	-0.2021943
-4.503969	ㄩ	-0.1270336
-2.480566	一	-0.3272866
-3.65387	一一	-0.1270336
-5.036735	一一三
-5.036735	一一兩千
-4.011057	一一零	-0.2110537
-5.036735	一九九九年
-5.036735	一九九八年
-5.036735	一九九三年
-4.667431	一九九五年	-0.1270336
-5.036735	一九九六年
-5.036735	一九九四年
-5.036735	一了
-3.70552	一二	-0.219635
-3.764153	一二三	-0.1700955
-5.036735	一二兩
-5.036735	一八七二
-4.321242	一三	-0.1933412
-3.061098	一下	-0.2586962
-4.667431	一下子	-0.1270336
-3.912339	一千	-0.233483
-5.036735	一千八百
-4.011057	一千三百	-0.3446634
-4.667431	一千五百	-0.1270336
-5.036735	一千個
-5.036735	一千萬
-5.036735	一口氣
-3.492946	一大堆	-0.2076956
-4.667431	一分之一	-0.1270336
-5.036735	一天
-5.036735	一天到晚
-4.321242	一方面	-0.1933412
-4.139026	一片	-0.1757913
-4.139026	一半	-0.165592
-3.527937	一句話	-0.1802235
-4.667431	一四二五	-0.1270336
-4.667431	一必	-0.1270336
-4.667431	一旦	-0.1270336
-4.667431	一目了然	-0.1270336
-4.503969	一再	-0.1270336
-4.667431	一再地	-0.1270336
-5.036735	一向
-4.503969	一字	-0.1270336
-5.036735	一年
-5.036735	一早
-2.981747	一次	-0.2505502
-5.036735	一次次
-3.65387	一百	-0.194605
-4.139026	一百二十	-0.2348694
-5.036735	一百八十
-5.036735	一百分之一
-4.503969	一百個	-0.1270336
-5.036735	一百萬
-5.036735	一百零三
-3.65387	一行	-0.1743116
-4.667431	一串	-0.1270336
-4.503969	一位	-0.1270336
-5.036735	一弄
-4.667431	一把	-0.1270336
-3.764153	一步	-0.1552113
-4.011057	一系列的	-0.1270336
-3.002979	一些	-0.1421411
-4.139026	一些個	-0.1270336
-5.036735	一來
-4.667431	一兩	-0.1270336
-4.667431	一取	-0.1270336
-3.375795	一定	-0.1984406
-4.321242	一定的	-0.1270336
-3.70552	一定要	-0.1542216
-3.243969	一直	-0.3155064
-5.036735	一門課
-5.036735	一阿
-3.565997	一則	-0.2433367
-4.503969	一律	-0.1270336
-3.304899	一段	-0.230641
-4.321242	一看	-0.1270336
-4.667431	一致	-0.1270336
-4.321242	一面	-0.1270336
-4.011057	一頁	-0.2043266
-5.036735	一乘乘
-2.233234	一個	-0.321429
-3.764153	一個字	-0.1270336
-4.503969	一個的	-0.1270336
-3.243969	一個是	-0.1691633
-4.139026	一個值	-0.2307235
-4.139026	一個個	-0.1270336
-5.036735	一個樣
-3.831956	一個機率	-0.3571817
-3.607715	一套	-0.1639629
-4.667431	一時	-0.1270336
-3.831956	一般	-0.1853448
-4.667431	一般而言	-0.1270336
-3.527937	一起	-0.1387195
-5.036735	一陣
-5.036735	一陣子
-4.321242	一隻	-0.1933412
-5.036735	一圈
-2.765816	一堆	-0.2131865
-5.036735	一帶
-3.65387	一張	-0.2543971
-4.139026	一張表	-0.3317794
-3.430432	一條	-0.2664778
-5.036735	一條條
-3.607715	一組	-0.1619418
-4.667431	一連串	-0.1270336
-4.321242	一減	-0.1270336
-4.503969	一等	-0.2307235
-4.011057	一週	-0.1270336
-3.65387	一開始	-0.1404149
-4.503969	一開始的	-0.1270336
-5.036735	一隅
-4.503969	一項	-0.1542216
-4.667431	一會	-0.1270336
-5.036735	一會兒
-4.503969	一萬	-0.1270336
-4.011057	一群	-0.1589232
-5.036735	一號
-4.011057	一號魚	-0.1270336
-3.174103	一路	-0.1802997
-5.036735	一零
-4.011057	一零一	-0.165592
-5.036735	一零二四
-5.036735	一零四
-4.503969	一零零	-0.1270336
-3.263344	一種	-0.1917762
-4.503969	一算	-0.1270336
-4.503969	一維	-0.1270336
-3.912339	一層	-0.1716933
-2.961505	一樣	-0.3562834
-5.036735	一樣值
-4.667431	一模一樣	-0.1270336
-5.036735	一輩子
-5.036735	一整片
-4.011057	一瞬間	-0.1270336
-2.897277	一點	-0.3578448
-5.036735	一點一
-5.036735	一點九
-5.036735	一點二
-5.036735	一點二三
-5.036735	一點十
-5.036735	一點三
-4.321242	一點零	-0.1270336
-4.667431	一點點	-0.1270336
-4.139026	一邊	-0.2307235
-5.036735	乙
-5.036735	丁
-3.430432	七	-0.1492984
-5.036735	七十七
-4.503969	七十二	-0.2307235
-4.667431	七千	-0.1270336
-5.036735	七年
-4.667431	七百五十	-0.1270336
-5.036735	七百六十
-5.036735	七號
-4.321242	七零年代	-0.1270336
-5.036735	七點二
-4.667431	七點三	-0.1270336
-5.036735	七點四
-3.70552	七點零	-0.1862359
-5.036735	乃
-3.304899	九	-0.3483723
-3.831956	九一一	-0.2043266
-5.036735	九九點七
-4.503969	九二一	-0.1270336
-5.036735	九八年
-4.139026	九十	-0.165592
-5.036735	九十度
-4.667431	九五年	-0.1270336
-5.036735	九六年
-4.503969	九月	-0.1270336
-5.036735	九來
-4.667431	九號	-0.1270336
-4.139026	九零年代	-0.165592
-4.011057	九點零	-0.1270336
-2.24447	了	-0.481003
-5.036735	了不起
-5.036735	了去
-3.831956	了這個	-0.1270336
-5.036735	了當
-3.207633	了解	-0.2142434
-2.961505	二	-0.2616925
-4.667431	二一	-0.1270336
-5.036735	二一零
-4.503969	二二	-0.1270336
-5.036735	二八二九
-3.70552	二十	-0.1589232
-5.036735	二十一
-4.321242	二十七	-0.1270336
-4.503969	二十二	-0.2307235
-4.667431	二十八	-0.1270336
-5.036735	二十五
-5.036735	二十五號
-4.321242	二十六	-0.1270336
-5.036735	二十四
-4.139026	二三	-0.1270336
-5.036735	二三十
-5.036735	二三五
-5.036735	二千年
-5.036735	二千零五年
-5.036735	二分之一
-4.503969	二四	-0.1270336
-5.036735	二來
-4.667431	二等	-0.1270336
-5.036735	二萬
-4.321242	二號	-0.1933412
-5.036735	二維
-4.503969	二點	-0.1270336
-5.036735	二點一
-5.036735	二點一二
-5.036735	二點二
-5.036735	二點三
-5.036735	二點三五
-5.036735	二點三六
-5.036735	二點三四
-3.764153	二點零	-0.1507286
-3.061098	人	-0.2400438
-4.667431	人人	-0.1270336
-5.036735	人士
-5.036735	人本
-4.667431	人用	-0.1270336
-3.527937	人名	-0.2270373
-4.667431	人因	-0.1270336
-4.321242	人事	-0.2777166
-4.667431	人物	-0.1270336
-5.036735	人們
-4.667431	人員	-0.1270336
-3.527937	人家	-0.1380233
-5.036735	人造
-4.503969	人稱	-0.1270336
-5.036735	人數
-5.036735	人聲
-5.036735	人類
-4.503969	入	-0.1270336
-5.036735	入口
-5.036735	入關
-3.460565	八	-0.2476832
-4.321242	八九	-0.1933412
-5.036735	八十
-5.036735	八十五
-5.036735	八十四
-5.036735	八千
-5.036735	八大
-5.036735	八分之七
-4.667431	八分之三	-0.1270336
-5.036735	八年
-4.139026	八成	-0.1757913
-3.243969	八百	-0.6028462
-5.036735	八來
-4.667431	八卦	-0.1270336
-4.667431	八格	-0.1270336
-5.036735	八號
-5.036735	八零年
-4.667431	八零年代	-0.1270336
-5.036735	八點二
-5.036735	八點二七
-5.036735	八點二八
-5.036735	八點二三
-5.036735	八點二五
-5.036735	八點二六
-5.036735	八點二四
-5.036735	八點十五
-5.036735	八點十六
-5.036735	八點三
-5.036735	八點三一
-5.036735	八點三零
-3.65387	八點零	-0.1441371
-5.036735	几
-5.036735	刀
-5.036735	刁
-5.036735	力
-4.667431	力學	-0.1270336
-3.304899	十	-0.2784157
-4.667431	十一	-0.1270336
-5.036735	十一月
-5.036735	十一號
-4.503969	十一點	-0.1270336
-5.036735	十一點九
-4.667431	十一點八	-0.1270336
-5.036735	十一點六
-3.831956	十一點零	-0.2043266
-4.667431	十七	-0.1270336
-4.667431	十九	-0.1270336
-5.036735	十九一
-5.036735	十九分之一
-4.011057	十二	-0.1542216
-5.036735	十二年
-3.912339	十二點	-0.1589231
-4.321242	十二點零	-0.1270336
-3.565997	十八	-0.2803487
-5.036735	十十
-4.139026	十三	-0.1757913
-5.036735	十三月
-5.036735	十三年
-4.667431	十三個	-0.1270336
-4.667431	十三點零	-0.1270336
-4.321242	十五	-0.1270336
-3.831956	十五點零	-0.2196861
-3.831956	十六	-0.1853448
-4.667431	十六點零	-0.1270336
-4.503969	十分	-0.1933412
-4.503969	十分之一	-0.2307235
-5.036735	十分之九
-4.503969	十四	-0.1270336
-4.667431	十四十三	-0.1270336
-4.667431	十四十四	-0.1270336
-5.036735	十四號
-5.036735	十四點零
-4.321242	十多	-0.1933412
-5.036735	十年
-3.912339	十個	-0.1589232
-3.402255	十萬	-0.5562563
-5.036735	十萬十萬
-5.036735	十萬零一
-5.036735	十號
-5.036735	十億
-4.503969	十點	-0.1270336
-5.036735	十點一
-5.036735	十點二
-4.667431	十點十	-0.1270336
-5.036735	十點十一
-5.036735	十點十二
-5.036735	十點十三
-5.036735	十點十五
-5.036735	十點十四
-5.036735	十點五
-5.036735	十點六三
-4.139026	十點零	-0.1270336
-5.036735	卜
-3.190545	又	-0.215923
-4.139026	又是	-0.1757913
-4.667431	又會	-0.1270336
-2.951727	三	-0.2868994
-4.503969	三一	-0.1270336
-4.503969	三二	-0.1270336
-5.036735	三八來
-4.139026	三十	-0.1270336
-5.036735	三十一
-5.036735	三十一號
-5.036735	三十七
-4.321242	三十九	-0.1270336
-5.036735	三十八
-5.036735	三十五
-5.036735	三十多
-4.667431	三三	-0.1270336
-5.036735	三六九
-5.036735	三分之一
-5.036735	三月
-4.321242	三四	-0.1542216
-4.503969	三四五	-0.1270336
-5.036735	三四五三
-4.667431	三年	-0.1270336
-5.036735	三年級
-4.321242	三次	-0.1270336
-4.503969	三百	-0.1270336
-5.036735	三百一十二
-5.036735	三角
-5.036735	三角形
-5.036735	三角形的
-5.036735	三角型
-5.036735	三來
-3.70552	三的	-0.177005
-5.036735	三段
-3.263344	三個	-0.1598696
-5.036735	三組
-5.036735	三通
-4.503969	三等	-0.1270336
-3.607715	三萬	-0.2577391
-4.321242	三號	-0.1757913
-5.036735	三維
-5.036735	三講
-4.667431	三點	-0.1270336
-5.036735	三點一
-5.036735	三點九五
-5.036735	三點九四
-5.036735	三點二
-5.036735	三點八
-5.036735	三點三
-5.036735	三點三九
-5.036735	三點三八
-4.503969	三點零	-0.1270336
-5.036735	三點零一
-3.158262	下	-0.269054
-3.207633	下一個	-0.1642932
-4.667431	下一張	-0.1270336
-4.139026	下下	-0.1270336
-4.667431	下工夫	-0.1270336
-5.036735	下午
-5.036735	下功夫
-3.912339	下去	-0.1757913
-3.565997	下來	-0.3016716
-4.011057	下限	-0.1700955
-3.764153	下面	-0.1480311
-5.036735	下堂課
-4.503969	下棋	-0.1270336
-3.70552	下週	-0.1842841
-3.65387	下載	-0.177005
-5.036735	下標
-3.912339	下課	-0.2043266
-5.036735	下學期
-5.036735	下轉
-5.036735	丈
-2.88883	上	-0.2766815
-5.036735	上下
-4.139026	上上	-0.1270336
-5.036735	上上週
-5.036735	上切
-5.036735	上午
-3.65387	上去	-0.219635
-5.036735	上好
-5.036735	上完
-4.321242	上來	-0.1270336
-5.036735	上到
-4.667431	上看	-0.1270336
-3.912339	上限	-0.1853448
-2.971508	上面	-0.2808511
-3.430432	上面的	-0.1589232
-5.036735	上乘
-5.036735	上海
-5.036735	上海話
-5.036735	上班
-5.036735	上萬
-5.036735	上裝
-5.036735	上路
-3.527937	上網	-0.2196043
-5.036735	上標
-3.912339	上課	-0.1589232
-5.036735	上舉
-5.036735	上轉
-5.036735	丸
-5.036735	凡
-5.036735	凡事
-3.912339	凡是	-0.145885
-4.667431	久	-0.1270336
-5.036735	么
-2.6855	也	-0.2549936
-3.912339	也一樣	-0.1933412
-4.321242	也不是	-0.1270336
-3.036909	也可以	-0.2334864
-3.912339	也好	-0.1958725
-3.190545	也有	-0.2016138
-4.503969	也沒有	-0.1270336
-2.88883	也是	-0.2204829
-3.350855	也許	-0.151301
-3.142978	也就是	-0.2245176
-3.527937	也就是說	-0.1933019
-4.139026	也算	-0.1270336
-5.036735	乞
-5.036735	于
-5.036735	亡
-5.036735	兀
-5.036735	刃
-5.036735	勺
-4.503969	千	-0.1270336
-3.764153	千千萬萬	-0.2860219
-4.667431	千萬	-0.1270336
-4.139026	千變萬化	-0.2348694
-5.036735	叉
-4.011057	口	-0.3317795
-4.503969	口水	-0.1270336
-4.011057	口形	-0.1589231
-4.321242	口型	-0.2777166
-4.667431	口音	-0.1270336
-5.036735	口袋
-5.036735	口語
-5.036735	土
-4.503969	土地	-0.2307235
-4.139026	土地公	-0.1757913
-4.667431	土耳其	-0.1270336
-4.139026	土銀	-0.1270336
-5.036735	士
-5.036735	夕
-5.036735	夕陽
-3.002979	大	-0.2669013
-4.321242	大一	-0.1933412
-5.036735	大二
-5.036735	大三
-5.036735	大大
-5.036735	大大小小
-3.831956	大小	-0.1995845
-5.036735	大小的
-5.036735	大中國
-5.036735	大加
-5.036735	大去
-5.036735	大四
-4.321242	大多	-0.1933412
-4.321242	大多數	-0.1270336
-5.036735	大江
-5.036735	大和
-4.011057	大於	-0.183226
-4.667431	大於一	-0.1270336
-3.460565	大的	-0.1917407
-5.036735	大門
-5.036735	大型
-5.036735	大為
-4.011057	大約	-0.2079103
-4.011057	大致	-0.165592
-5.036735	大要
-5.036735	大負
-5.036735	大乘
-3.327269	大家	-0.237946
-5.036735	大海
-5.036735	大將
-4.667431	大敗	-0.1270336
-3.831956	大部分	-0.1757913
-4.667431	大都	-0.1270336
-5.036735	大陸
-5.036735	大雪
-5.036735	大麻
-5.036735	大幅
-4.321242	大量	-0.2777166
-5.036735	大圓
-4.667431	大會	-0.1270336
-2.932808	大概	-0.1656222
-3.764153	大概是	-0.1270336
-5.036735	大腦
-5.036735	大網
-5.036735	大綱
-5.036735	大寫
-4.139026	大衛霍索夫	-0.1589231
-4.503969	大學	-0.1270336
-5.036735	大學部
-5.036735	大積到
-5.036735	大興安嶺
-5.036735	大選
-5.036735	大聲
-4.667431	大逋	-0.1270336
-5.036735	女
-4.667431	女生	-0.1270336
-5.036735	女孩
-3.912339	子	-0.1632243
-5.036735	子系統
-3.350855	子音	-0.3589935
-5.036735	孑
-5.036735	孓
-5.036735	寸
-3.243969	小	-0.2087422
-4.321242	小一點	-0.1933412
-4.667431	小小	-0.1270336
-4.667431	小心	-0.1270336
-4.503969	小我	-0.1270336
-4.139026	小於	-0.1270336
-5.036735	小東西
-3.65387	小的	-0.1441371
-4.503969	小段	-0.1270336
-3.912339	小時	-0.1542216
-5.036735	小掉
-5.036735	小艇
-5.036735	小頓
-5.036735	小網站
-5.036735	小寫
-5.036735	小學
-5.036735	小聲
-5.036735	尢
-5.036735	尸
-4.667431	山	-0.1270336
-5.036735	山東話
-5.036735	川
-4.503969	工	-0.1270336
-4.667431	工夫	-0.1270336
-4.321242	工作	-0.1270336
-5.036735	工作站
-5.036735	工作量
-3.70552	工具	-0.3159158
-4.667431	工商	-0.1270336
-4.667431	工程	-0.1270336
-5.036735	工業界
-5.036735	工數啊
-5.036735	己
-4.139026	己經	-0.1270336
-4.011057	已	-0.258305
-2.905891	已經	-0.2006336
-5.036735	巳
-5.036735	巾
-5.036735	干
-4.667431	干擾	-0.1270336
-4.667431	干擾到	-0.1270336
-5.036735	廾
-5.036735	弋
-5.036735	弓
-3.304899	才	-0.1645887
-3.912339	才可以	-0.1589232
-4.139026	才有	-0.165592
-3.565997	才是	-0.1630792
-4.321242	才能	-0.1933412
-3.831956	才能夠	-0.1542216
-3.65387	才會	-0.177005
-4.503969	才對	-0.1270336
-5.036735	丑
-5.036735	丐
-2.69077	不	-0.2489279
-4.667431	不一	-0.1270336
-3.565997	不一定	-0.2306346
-3.128214	不一樣	-0.3810045
-3.607715	不一樣的	-0.591265
-5.036735	不入
-3.527937	不太一樣	-0.316545
-4.139026	不太好	-0.1757913
-3.565997	不太容易	-0.1404149
-4.321242	不少	-0.1270336
-4.503969	不出	-0.1270336
-5.036735	不包括
-4.321242	不可	-0.1933412
-4.139026	不可以	-0.1757913
-5.036735	不可或缺
-4.667431	不可能	-0.1270336
-3.912339	不只	-0.1933412
-3.912339	不只是	-0.1270336
-5.036735	不外乎
-5.036735	不必
-3.65387	不用	-0.144137
-4.503969	不光	-0.2307235
-3.912339	不再	-0.1776131
-2.981747	不同	-0.2668973
-4.667431	不同人	-0.1270336
-2.914679	不同的	-0.2553393
-4.503969	不在	-0.1270336
-3.65387	不好	-0.3426293
-4.667431	不如	-0.1270336
-4.503969	不存在	-0.1270336
-5.036735	不至於
-4.139026	不行	-0.1757913
-5.036735	不妨
-5.036735	不見了
-3.304899	不見得	-0.1995844
-5.036735	不見得要
-5.036735	不佳
-4.139026	不到	-0.1757913
-5.036735	不宜
-5.036735	不幸
-3.430432	不知道	-0.2766315
-4.321242	不表示	-0.1270336
-2.718121	不是	-0.2143783
-4.503969	不是說	-0.1270336
-4.503969	不看	-0.1270336
-3.283625	不要	-0.1888606
-4.667431	不計	-0.1270336
-5.036735	不重要
-3.607715	不容易	-0.1757913
-3.283625	不能	-0.1712903
-4.667431	不能不	-0.1270336
-5.036735	不能自己
-4.503969	不能夠	-0.1270336
-4.667431	不停	-0.1270336
-4.667431	不動	-0.1270336
-3.912339	不夠	-0.1589231
-4.667431	不得	-0.1270336
-4.667431	不得了	-0.1270336
-4.011057	不喜歡	-0.1270336
-4.503969	不然	-0.1270336
-4.667431	不等於	-0.1270336
-5.036735	不僅僅
-5.036735	不慎
-5.036735	不愧
-3.243969	不會	-0.1404149
-3.492946	不過	-0.1527077
-4.667431	不過呢	-0.1270336
-4.011057	不像	-0.1270336
-3.912339	不對的	-0.1933412
-4.503969	不盡然	-0.1270336
-3.492946	不管	-0.2241459
-4.667431	不管怎樣	-0.1270336
-4.011057	不算	-0.1507286
-4.667431	不需	-0.1270336
-3.70552	不需要	-0.1480311
-4.321242	不論	-0.1933412
-4.321242	不曉得	-0.1757913
-3.65387	不錯	-0.215308
-5.036735	不應該
-5.036735	不講
-3.65387	不斷	-0.2672351
-4.321242	不斷地	-0.1933412
-4.503969	不難	-0.1270336
-4.667431	不變	-0.1270336
-3.912339	中	-0.145885
-4.503969	中午	-0.1270336
-4.503969	中心	-0.1270336
-5.036735	中心主
-3.430432	中文	-0.2000541
-3.492946	中文的	-0.165592
-4.667431	中文詞	-0.1270336
-4.321242	中央	-0.2777166
-4.667431	中立	-0.1270336
-5.036735	中性
-4.139026	中東	-0.1757913
-4.667431	中英	-0.1270336
-5.036735	中英文
-5.036735	中英台
-4.667431	中國	-0.1270336
-4.667431	中期	-0.1270336
-5.036735	中華
-5.036735	中視
-3.048835	中間	-0.2077987
-3.607715	中間的	-0.1414615
-5.036735	中廣
-5.036735	中學生
-5.036735	丰
-5.036735	丹
-4.139026	之	-0.1270336
-4.321242	之一	-0.1270336
-3.607715	之下	-0.2407846
-4.667431	之中	-0.1270336
-3.912339	之內	-0.1700955
-3.70552	之外	-0.2554791
-5.036735	之多
-3.430432	之前	-0.1639628
-3.912339	之前的	-0.1270336
-2.504062	之後	-0.4679485
-4.321242	之後的	-0.1270336
-4.503969	之為	-0.1270336
-3.764153	之間	-0.165592
-3.70552	之間的	-0.1270336
-3.607715	之間的關係	-0.2212018
-4.667431	之類	-0.1270336
-5.036735	尹
-5.036735	予
-5.036735	云
-5.036735	井
-5.036735	互
-5.036735	互為
-4.011057	互相	-0.1270336
-4.503969	互動	-0.1270336
-5.036735	互換
-4.667431	互補	-0.1270336
-3.190545	五	-0.2600152
-5.036735	五一二
-3.460565	五十	-0.1943519
-5.036735	五十多
-4.503969	五千	-0.1270336
-5.036735	五五十
-5.036735	五五百
-4.321242	五六	-0.1933412
-5.036735	五六年
-4.503969	五月	-0.1270336
-5.036735	五好
-5.036735	五年
-4.503969	五百	-0.2307235
-4.503969	五百一十二	-0.2307235
-5.036735	五百六十
-5.036735	五百萬
-5.036735	五萬
-4.139026	五號	-0.1270336
-4.667431	五點	-0.1270336
-4.503969	五點七	-0.1270336
-5.036735	五點九
-5.036735	五點九四
-5.036735	五點二
-5.036735	五點八
-5.036735	五點八四
-5.036735	五點十三
-5.036735	五點十四
-5.036735	五點三
-5.036735	五點五
-5.036735	五點六
-5.036735	五點四五
-3.912339	五點零	-0.148031
-5.036735	亢
-5.036735	仁
-4.667431	什	-0.1270336
-2.617745	什麼	-0.3447013
-3.912339	什麼是	-0.1270336
-5.036735	仆
-5.036735	仇
-5.036735	仍
-3.430432	仍然	-0.136357
-3.764153	仍然是	-0.1270336
-4.503969	今	-0.1270336
-3.002979	今天	-0.2047611
-3.831956	今天早上	-0.1619418
-3.70552	今天的	-0.2129485
-5.036735	今日
-5.036735	今年
-4.667431	介	-0.1270336
-4.503969	介於	-0.1270336
-5.036735	介面
-5.036735	介紹
-5.036735	介意
-5.036735	元
-4.503969	元件	-0.1270336
-5.036735	元素
-5.036735	允
-5.036735	允許
-4.321242	內	-0.1270336
-4.139026	內容	-0.1270336
-5.036735	內圈
-4.503969	內涵	-0.1270336
-3.764153	內積	-0.3208113
-5.036735	內積來
-3.225421	六	-0.1847444
-4.667431	六一	-0.1270336
-4.139026	六十	-0.2110537
-5.036735	六十一
-5.036735	六十八號
-4.667431	六千	-0.1270336
-4.321242	六個	-0.1270336
-3.912339	六萬	-0.3571818
-4.139026	六號	-0.2348694
-4.667431	六零年代	-0.1270336
-4.011057	六點零	-0.1507286
-5.036735	兮
-3.912339	公	-0.4109607
-5.036735	公分
-3.912339	公司	-0.1441371
-4.139026	公式	-0.1270336
-4.503969	公告	-0.1270336
-5.036735	公車
-5.036735	公股
-5.036735	公視
-4.667431	公路	-0.1270336
-4.139026	公認	-0.1270336
-5.036735	公雞
-5.036735	冗
-5.036735	凶
-3.190545	分	-0.2272821
-3.65387	分子	-0.1270336
-5.036735	分不清楚
-4.011057	分之一	-0.1853448
-4.667431	分公司	-0.1270336
-4.503969	分分	-0.1270336
-4.667431	分出來	-0.1270336
-4.011057	分母	-0.1542216
-5.036735	分在
-3.492946	分成	-0.1740303
-4.667431	分行	-0.1270336
-4.011057	分佈	-0.1270336
-3.402255	分別	-0.1441371
-5.036735	分別分別
-5.036735	分呃
-3.65387	分到	-0.145885
-4.667431	分明	-0.1270336
-3.764153	分析	-0.1757913
-5.036735	分析分析
-5.036735	分析出來
-4.667431	分析的	-0.1270336
-4.667431	分法	-0.1270336
-4.667431	分段	-0.1270336
-4.667431	分為	-0.1270336
-5.036735	分配
-5.036735	分配律
-5.036735	分配率
-5.036735	分做
-4.011057	分得	-0.3317795
-5.036735	分部
-4.139026	分散	-0.2348695
-5.036735	分散式
-4.139026	分開	-0.1958725
-5.036735	分開來
-4.139026	分群	-0.1270336
-3.402255	分數	-0.2525763
-4.667431	分辨	-0.1270336
-4.667431	分類	-0.1270336
-4.667431	分鐘	-0.1270336
-4.321242	切	-0.1270336
-5.036735	切下
-5.036735	切下去
-5.036735	切切
-4.667431	切出	-0.1270336
-5.036735	切好
-3.764153	切成	-0.2023895
-5.036735	切到
-4.667431	切得	-0.1270336
-4.503969	切掉	-0.2307235
-4.503969	切割	-0.1270336
-5.036735	切開
-5.036735	切開來
-5.036735	切碎
-5.036735	切過
-5.036735	切線
-5.036735	刈
-5.036735	勻
-5.036735	勾
-5.036735	勿
-4.503969	化	-0.1270336
-5.036735	化成
-5.036735	化到
-5.036735	匹
-5.036735	午
-5.036735	升
-4.667431	升高	-0.1270336
-5.036735	卅
-5.036735	卞
-5.036735	厄
-5.036735	友
-4.321242	及	-0.2777166
-5.036735	及格
-5.036735	及第
-4.503969	反	-0.1270336
-3.912339	反正	-0.1589232
-4.321242	反而	-0.1933412
-5.036735	反映
-4.321242	反射	-0.1270336
-3.831956	反過來	-0.145885
-4.667431	反對	-0.1270336
-4.503969	反應	-0.1270336
-4.503969	反覆	-0.1270336
-5.036735	壬
-3.912339	天	-0.167015
-5.036735	天下
-5.036735	天大
-5.036735	天文
-5.036735	天候
-5.036735	天哪
-4.011057	天氣	-0.1507286
-5.036735	天都
-4.667431	夫	-0.1270336
-5.036735	夫人
-3.402255	太	-0.2226178
-5.036735	太太
-5.036735	太少
-3.912339	太多	-0.1853448
-4.503969	太多了	-0.2307235
-5.036735	太早
-5.036735	太空人
-5.036735	太晚
-5.036735	太過
-5.036735	夭
-5.036735	孔
-3.565997	少	-0.273962
-4.321242	少一點	-0.1270336
-4.139026	少了	-0.1757913
-5.036735	少小
-5.036735	少不了
-5.036735	少有
-4.667431	少的	-0.1270336
-5.036735	少掉
-4.667431	少量	-0.1270336
-3.65387	少數	-0.1441371
-5.036735	少點
-5.036735	尤
-4.503969	尤其	-0.1270336
-5.036735	尺
-5.036735	屯
-4.667431	巴	-0.1270336
-4.503969	巴士	-0.1270336
-5.036735	巴比倫
-5.036735	巴拔
-4.667431	巴格達	-0.1270336
-4.321242	巴勒斯坦	-0.1270336
-4.667431	巴塞隆納	-0.1270336
-4.667431	巴瑟隆	-0.1270336
-5.036735	巴爾的摩
-5.036735	幻
-5.036735	廿
-5.036735	弔
-5.036735	引
-5.036735	引出
-5.036735	引用
-5.036735	引發
-4.503969	心	-0.1270336
-5.036735	心理學
-5.036735	戈
-5.036735	戶
-4.503969	手	-0.1270336
-5.036735	手表
-5.036735	手持
-4.667431	手指頭	-0.1270336
-5.036735	手段
-4.667431	手動	-0.1270336
-3.460565	手機	-0.1967734
-5.036735	扎
-4.503969	支	-0.1270336
-4.321242	文	-0.1933412
-4.503969	文化	-0.1270336
-3.831956	文件	-0.1507286
-3.142978	文字	-0.3355977
-3.527937	文字的	-0.1684817
-5.036735	文字面
-5.036735	文字量
-4.011057	文法	-0.165592
-4.321242	文教	-0.1270336
-3.607715	文章	-0.237946
-4.321242	文獻	-0.1270336
-5.036735	文獻會
-5.036735	斗
-5.036735	斤
-4.321242	方	-0.1270336
-5.036735	方才
-4.667431	方向	-0.1270336
-5.036735	方向盤
-4.139026	方式	-0.1958725
-4.667431	方言	-0.1270336
-3.190545	方法	-0.270166
-4.139026	方便	-0.1270336
-4.667431	方面	-0.1270336
-5.036735	方程
-5.036735	日
-5.036735	日子
-4.011057	日文	-0.1270336
-5.036735	日月潭
-4.667431	日本	-0.1270336
-4.321242	日常	-0.1757913
-5.036735	曰
-4.503969	月	-0.1270336
-5.036735	月份
-5.036735	月考
-5.036735	月球
-5.036735	木
-5.036735	欠
-5.036735	欠缺
-4.667431	止	-0.1270336
-5.036735	歹
-5.036735	毋
-2.981747	比	-0.2336837
-5.036735	比如說
-4.011057	比例	-0.1270336
-4.667431	比美	-0.1270336
-4.321242	比起	-0.1270336
-4.667431	比起來	-0.1270336
-4.503969	比喻	-0.1270336
-5.036735	比喻人
-4.667431	比照	-0.1270336
-2.636049	比較	-0.2609878
-3.607715	比較大	-0.4506144
-3.831956	比較比較	-0.1270336
-3.350855	比較好	-0.2540471
-3.831956	比較容易	-0.1270336
-3.831956	比較複雜	-0.2628193
-3.65387	比對	-0.3016716
-4.503969	比賽	-0.1270336
-3.764153	毛	-0.1600906
-5.036735	氏
-4.503969	水	-0.2307235
-5.036735	水龍頭
-4.503969	火	-0.2307235
-5.036735	火山
-5.036735	火災
-5.036735	火燒
-5.036735	爪
-5.036735	父
-5.036735	爻
-4.139026	片	-0.1757913
-4.321242	片語	-0.1270336
-5.036735	牙
-5.036735	牛
-5.036735	牛肉
-5.036735	犬
-5.036735	王
-5.036735	丙
-5.036735	世
-5.036735	世代
-4.139026	世界	-0.1270336
-5.036735	丕
-5.036735	且
-5.036735	丘
-4.667431	主	-0.1270336
-4.667431	主旨	-0.1270336
-4.667431	主角	-0.1270336
-5.036735	主流
-3.492946	主要	-0.279932
-4.667431	主詞	-0.1270336
-4.667431	主軸	-0.1270336
-4.667431	主演	-0.1270336
-4.321242	主播	-0.1270336
-4.667431	主導	-0.1270336
-3.565997	主題	-0.1729501
-5.036735	乍
-5.036735	乏
-5.036735	乎
-3.263344	以	-0.1892354
-5.036735	以下
-3.764153	以上	-0.1270336
-4.667431	以內	-0.1270336
-4.139026	以及	-0.1270336
-4.321242	以外	-0.1270336
-4.667431	以外的	-0.1270336
-3.831956	以色列	-0.1480311
-5.036735	以免
-5.036735	以往
-4.667431	以阿	-0.1270336
-4.139026	以前	-0.1270336
-3.70552	以後	-0.145885
-4.139026	以後的	-0.1757913
-5.036735	以是
-4.321242	以為	-0.1270336
-5.036735	以國
-5.036735	付
-5.036735	仔
-4.011057	仔細	-0.1542216
-5.036735	仕
-5.036735	他
-5.036735	他方
-5.036735	他去
-5.036735	他用
-5.036735	他的
-5.036735	他們
-5.036735	他們的
-5.036735	仗
-4.667431	代	-0.1270336
-5.036735	代用
-3.831956	代到	-0.2407846
-3.100111	代表	-0.2503085
-3.764153	代表性	-0.2508719
-3.764153	代表值	-0.1878653
-4.667431	代數	-0.1270336
-5.036735	代課
-5.036735	令
-5.036735	仙
-4.667431	充	-0.1270336
-5.036735	充分
-5.036735	充斥
-5.036735	充份
-5.036735	充滿
-5.036735	兄
-5.036735	冉
-5.036735	冊
-5.036735	冬
-5.036735	凹
-3.565997	出	-0.1948526
-4.503969	出去	-0.1270336
-3.048835	出來	-0.390752
-4.139026	出來了	-0.3317794
-3.565997	出來的	-0.1374054
-4.667431	出奇	-0.1270336
-5.036735	出門
-4.503969	出國	-0.1270336
-3.263344	出現	-0.1733279
-4.011057	出現的	-0.2110537
-3.65387	出發	-0.177005
-4.667431	出頭	-0.1270336
-5.036735	出聲
-5.036735	出題
-5.036735	凸
-5.036735	刊
-3.100111	加	-0.2625273
-4.503969	加二	-0.1270336
-3.65387	加上	-0.1589232
-4.667431	加上去	-0.1270336
-4.503969	加分	-0.1270336
-4.667431	加以	-0.1270336
-5.036735	加出
-5.036735	加加加
-5.036735	加回
-4.667431	加回去	-0.1270336
-5.036735	加好
-5.036735	加州
-4.667431	加成	-0.1270336
-4.667431	加完	-0.1270336
-5.036735	加快
-4.667431	加到	-0.1270336
-4.011057	加法	-0.1589232
-5.036735	加洲
-5.036735	加負
-4.139026	加乘	-0.1757913
-5.036735	加乘性
-3.190545	加起來	-0.2255173
-5.036735	加進
-4.321242	加進去	-0.1933412
-4.011057	加進來	-0.290235
-4.503969	加滿	-0.1270336
-4.667431	功	-0.1270336
-4.321242	功夫	-0.1270336
-5.036735	功夫花
-5.036735	功效
-4.667431	功能	-0.1270336
-4.667431	包	-0.1270336
-4.139026	包含	-0.1757913
-3.243969	包括	-0.202866
-4.667431	包圍	-0.1270336
-5.036735	匆
-4.321242	北	-0.1270336
-4.139026	北二高	-0.2348694
-5.036735	北市
-4.011057	北部	-0.4995654
-5.036735	匝
-5.036735	仟
-4.011057	半	-0.1589232
-5.036735	半音
-4.321242	半島	-0.2777166
-5.036735	半徑
-4.667431	半晌	-0.1270336
-5.036735	卉
-4.667431	卡	-0.1270336
-5.036735	卡在
-5.036735	卡通
-4.667431	卡達	-0.1270336
-4.667431	占	-0.1270336
-5.036735	卯
-2.461391	去	-0.3190367
-4.139026	去分	-0.2348694
-3.912339	去去	-0.1270336
-5.036735	去向
-4.667431	去年	-0.1270336
-5.036735	去到
-4.667431	去除	-0.1270336
-3.243969	去做	-0.1595065
-5.036735	去國
-4.667431	去就	-0.1270336
-3.70552	去算	-0.2027074
-3.607715	可	-0.177005
-4.667431	可不可以	-0.1270336
-2.48715	可以	-0.2547189
-3.460565	可以用	-0.2316273
-4.321242	可以的	-0.2777166
-4.321242	可以看	-0.1757913
-3.70552	可以說	-0.2084076
-5.036735	可可
-4.667431	可用	-0.1270336
-4.667431	可行	-0.1270336
-4.503969	可行性	-0.1270336
-5.036735	可取
-4.139026	可是	-0.1418477
-4.503969	可是呢	-0.1270336
-2.75956	可能	-0.2287003
-5.036735	可能性
-3.607715	可能的	-0.1414615
-3.113935	可能是	-0.2188875
-3.430432	可能會	-0.1529482
-5.036735	可惜
-5.036735	可就
-4.667431	可想而知	-0.1270336
-4.321242	可靠	-0.1270336
-5.036735	可靠度
-5.036735	古
-4.503969	古代	-0.1270336
-5.036735	古字
-4.667431	古老	-0.1270336
-4.321242	古典	-0.2777166
-4.321242	右	-0.1270336
-5.036735	右下
-5.036735	右上
-5.036735	右上角
-5.036735	右轉
-3.460565	右邊	-0.1597011
-4.011057	右邊的	-0.2110537
-5.036735	召
-5.036735	叮
-5.036735	叩
-5.036735	叩關
-5.036735	叨
-5.036735	叼
-5.036735	司
-5.036735	叵
-3.402255	叫	-0.1619418
-4.503969	叫作	-0.1270336
-2.812332	叫做	-0.2220796
-4.503969	另	-0.1270336
-4.139026	另一個	-0.1270336
-2.932808	另外	-0.5047622
-3.831956	另外一種	-0.1270336
-4.139026	另外的	-0.1270336
-3.263344	只	-0.2173947
-4.667431	只不過	-0.1270336
-4.321242	只只	-0.1270336
-4.321242	只用	-0.1270336
-4.321242	只在	-0.1270336
-5.036735	只好
-2.981747	只有	-0.1923814
-3.025302	只是	-0.2109455
-3.912339	只是說	-0.1270336
-3.492946	只看	-0.2678494
-3.375795	只要	-0.1589231
-3.912339	只能	-0.1716934
-5.036735	只會
-4.503969	只管	-0.1270336
-5.036735	史
-5.036735	叱
-3.70552	台	-0.2860219
-4.667431	台大	-0.1270336
-3.912339	台北	-0.1589231
-5.036735	台北市
-5.036735	台北市長
-5.036735	台客閩
-5.036735	台英
-5.036735	台語
-4.139026	台灣	-0.2583051
-4.667431	台灣人	-0.1270336
-3.764153	句	-0.1270336
-3.764153	句子	-0.1270336
-4.139026	句型	-0.1270336
-5.036735	句首
-5.036735	句調
-5.036735	叭
-5.036735	叻
-3.207633	四	-0.1966143
-4.321242	四十	-0.1270336
-5.036735	四十五
-5.036735	四下
-4.667431	四千	-0.1270336
-5.036735	四川
-5.036735	四川話
-5.036735	四五
-4.667431	四五六	-0.1270336
-3.70552	四分之一	-0.2524464
-5.036735	四分之三
-5.036735	四方
-4.667431	四月	-0.1270336
-5.036735	四四點八
-4.503969	四百八十萬	-0.1270336
-5.036735	四百四十
-4.503969	四百多	-0.2307235
-4.503969	四段	-0.2307235
-4.667431	四音	-0.1270336
-3.764153	四個	-0.1896411
-5.036735	四週
-5.036735	四塊
-4.321242	四號	-0.165592
-3.912339	四聲	-0.2043266
-4.667431	四點	-0.1270336
-5.036735	四點九
-5.036735	四點八
-5.036735	四點三四
-3.764153	四點零	-0.2043266
-5.036735	囚
-5.036735	外
-5.036735	外太空
-5.036735	外交
-5.036735	外交部
-5.036735	外我
-5.036735	外長
-5.036735	外流
-3.607715	外面	-0.1426858
-5.036735	外面的
-5.036735	外圈
-5.036735	外國人
-5.036735	外勞
-5.036735	外圍
-5.036735	外邊
-5.036735	央
-4.667431	失	-0.1270336
-4.503969	失真	-0.2307235
-5.036735	失掉
-5.036735	奴
-5.036735	奶
-5.036735	孕
-2.225901	它	-0.3296202
-3.764153	它一	-0.2214776
-3.912339	它只	-0.1933412
-3.327269	它在	-0.263925
-2.437075	它的	-0.2569025
-2.798526	它是	-0.28157
-2.718121	它們	-0.2358973
-3.174103	它們的	-0.155974
-3.086714	它就	-0.2579387
-5.036735	尼
-5.036735	巨
-5.036735	巧
-5.036735	巧妙
-5.036735	左
-5.036735	左下角
-5.036735	左上角
-3.912339	左右	-0.233483
-3.527937	左邊	-0.1270336
-4.321242	左邊的	-0.2777166
-5.036735	市
-5.036735	市府
-5.036735	市長
-5.036735	布
-4.011057	布希	-0.2110537
-5.036735	布淤於雨育
-4.667431	平	-0.1270336
-4.667431	平方	-0.1270336
-4.667431	平台	-0.1270336
-5.036735	平行
-4.667431	平行的	-0.1270336
-3.831956	平均	-0.1776131
-5.036735	平均法
-4.667431	平均值	-0.1270336
-4.321242	平均起來	-0.1270336
-5.036735	平易近人
-5.036735	平的
-5.036735	平面
-4.667431	平面上	-0.1270336
-4.503969	平常	-0.1270336
-5.036735	平移
-5.036735	平緩
-5.036735	平衡
-5.036735	幼
-5.036735	弁
-5.036735	弘
-5.036735	弗
-4.667431	必	-0.1270336
-5.036735	必要
-5.036735	必要條件
-5.036735	必修課
-5.036735	必然
-3.565997	必須	-0.2696657
-4.321242	必需	-0.1270336
-5.036735	戊
-3.527937	打	-0.2564862
-4.667431	打打	-0.1270336
-5.036735	打到
-4.503969	打敗	-0.1270336
-5.036735	打球
-4.321242	打開	-0.1270336
-5.036735	打開來
-3.607715	打電話	-0.1994677
-5.036735	打獵
-5.036735	扔
-5.036735	扒
-5.036735	斥
-5.036735	旦
-5.036735	朮
-3.912339	本	-0.1380233
-4.503969	本行	-0.2307235
-3.527937	本身	-0.2979229
-3.402255	本來	-0.2354298
-4.503969	本來的	-0.1270336
-5.036735	本領
-5.036735	未
-5.036735	未免
-4.011057	未來	-0.1270336
-4.503969	未來的	-0.1270336
-4.503969	未知	-0.1270336
-4.667431	未知詞	-0.1270336
-4.503969	末	-0.2307235
-5.036735	札
-3.764153	正	-0.219686
-5.036735	正一
-5.036735	正二
-5.036735	正中央
-5.036735	正方形
-5.036735	正比
-5.036735	正正
-4.667431	正在	-0.1270336
-5.036735	正負
-4.667431	正面	-0.1270336
-4.667431	正常	-0.1270336
-5.036735	正號
-4.139026	正確	-0.1270336
-4.139026	正確的	-0.1776131
-3.764153	正確率	-0.1270336
-5.036735	母
-5.036735	母式
-3.492946	母音	-0.2030302
-5.036735	民
-5.036735	民生
-5.036735	民俗
-5.036735	民進黨
-4.667431	民間	-0.1270336
-5.036735	永
-3.565997	永遠	-0.2380321
-5.036735	汁
-5.036735	汀
-5.036735	氾
-5.036735	犯
-5.036735	玄
-5.036735	玄虛
-5.036735	玉
-5.036735	瓜
-5.036735	瓦
-5.036735	甘
-4.139026	生	-0.1757913
-5.036735	生存
-5.036735	生活
-5.036735	生氣
-2.514534	用	-0.3201127
-3.375795	用一個	-0.1697356
-3.831956	用人	-0.1700955
-4.667431	用上	-0.1270336
-5.036735	用心
-5.036735	用加
-4.139026	用用	-0.1270336
-5.036735	用完
-4.139026	用來	-0.1757913
-4.503969	用到	-0.1270336
-5.036735	用長
-5.036735	用掉
-4.667431	用處	-0.1270336
-4.503969	用途	-0.1270336
-4.667431	用語	-0.1270336
-4.011057	用語音	-0.1270336
-5.036735	甩
-5.036735	田
-3.527937	由	-0.1456141
-4.667431	由來	-0.1270336
-4.503969	由於	-0.2307235
-5.036735	甲
-5.036735	申
-5.036735	申請
-4.503969	白	-0.1270336
-5.036735	白天
-4.667431	白白	-0.1270336
-5.036735	白色
-4.139026	白宮	-0.1757913
-5.036735	白話文
-5.036735	皮
-5.036735	皿
-4.321242	目	-0.1933412
-3.912339	目的	-0.1853447
-3.831956	目的地	-0.1950271
-4.139026	目前	-0.2348694
-4.667431	目前車	-0.1270336
-3.912339	目標	-0.1716934
-4.503969	目錄	-0.1270336
-5.036735	矛
-5.036735	矢
-5.036735	石
-5.036735	示
-5.036735	示意圖
-5.036735	禾
-5.036735	穴
-5.036735	立
-5.036735	立刻
-5.036735	丞
-5.036735	丟
-5.036735	丟到
-3.764153	丟掉	-0.2287656
-3.912339	丟掉了	-0.4109607
-5.036735	丟給
-5.036735	丟進
-5.036735	乒
-5.036735	乓
-5.036735	乩
-5.036735	亙
-3.565997	交	-0.235098
-4.667431	交叉	-0.1270336
-5.036735	交友
-4.667431	交回	-0.1270336
-4.667431	交到交到	-0.1270336
-4.667431	交通	-0.1270336
-5.036735	交換
-5.036735	交換性
-5.036735	交換律
-4.503969	交給	-0.1270336
-5.036735	交集
-5.036735	亦
-5.036735	亥
-5.036735	仿
-5.036735	伉
-5.036735	伙
-4.667431	伙計	-0.1270336
-5.036735	伊
-4.667431	伊拉克	-0.1270336
-5.036735	伊朗
-5.036735	伕
-5.036735	伍
-5.036735	伐
-5.036735	休
-4.503969	休息	-0.2307235
-5.036735	休閒
-5.036735	伏
-5.036735	仲
-3.764153	件	-0.3249971
-5.036735	任
-3.158262	任何	-0.4341867
-4.011057	任何的	-0.2902349
-4.503969	任意	-0.1270336
-5.036735	仰
-4.667431	份	-0.1270336
-5.036735	份量
-4.503969	企	-0.1270336
-3.831956	光	-0.3208112
-5.036735	光念
-3.764153	光是	-0.1441371
-5.036735	光陰
-5.036735	光電
-4.667431	光碟	-0.1270336
-5.036735	光纖
-5.036735	兇
-5.036735	兆
-2.992233	先	-0.2246598
-5.036735	先先
-5.036735	先決
-5.036735	先後
-4.667431	先做	-0.1270336
-3.912339	先說	-0.177005
-4.321242	全	-0.1270336
-4.667431	全文	-0.1270336
-5.036735	全全
-5.036735	全自動
-5.036735	全面
-4.667431	全晌	-0.1270336
-5.036735	全國
-4.503969	全球	-0.1270336
-5.036735	全球化
-5.036735	全球性
-3.128214	全部	-0.2402087
-3.70552	全部加起來	-0.1842841
-3.764153	全部的	-0.165592
-5.036735	全新
-5.036735	共
-5.036735	共用
-4.011057	共同	-0.3317795
-5.036735	共有
-2.75956	再	-0.2310485
-4.667431	再下去	-0.1270336
-5.036735	再下來
-4.139026	再去	-0.1270336
-4.503969	再再	-0.1270336
-3.492946	再來	-0.1763977
-5.036735	再者
-5.036735	再度
-4.139026	再說	-0.1270336
-4.139026	再講	-0.1757913
-4.321242	冰	-0.2777166
-4.321242	列	-0.1270336
-5.036735	刑
-5.036735	划
-5.036735	刎
-5.036735	劣
-5.036735	匈
-5.036735	匡
-5.036735	匠
-5.036735	印
-4.667431	印出來	-0.1270336
-5.036735	危
-4.503969	危險	-0.1270336
-5.036735	吉
-5.036735	吏
-4.321242	同	-0.1270336
-3.764153	同一	-0.4663262
-5.036735	同一組
-5.036735	同一類
-5.036735	同步
-4.503969	同音字	-0.1270336
-5.036735	同音詞
-3.70552	同時	-0.1270336
-4.321242	同理	-0.2110537
-5.036735	同義
-3.831956	同樣	-0.1563852
-5.036735	同樣地
-3.65387	同樣的	-0.1523552
-4.667431	同質性	-0.1270336
-3.912339	同學	-0.1270336
-5.036735	同學會
-5.036735	吊
-5.036735	吐
-5.036735	吋
-3.607715	各	-0.1818464
-4.321242	各自	-0.1270336
-4.667431	各自的	-0.1270336
-3.65387	各位	-0.1270336
-3.912339	各是	-0.1933412
-3.430432	各種	-0.2013848
-3.764153	向	-0.1507286
-5.036735	向內
-5.036735	向外
-4.011057	向前	-0.2079103
-5.036735	向量
-3.831956	名	-0.2174508
-5.036735	名子
-4.011057	名字	-0.1507286
-5.036735	名都
-3.70552	名詞	-0.1426857
-4.503969	合	-0.1270336
-5.036735	合乎
-5.036735	合用
-4.503969	合成	-0.1933412
-4.503969	合作	-0.2307235
-5.036735	合法
-5.036735	合法化
-4.667431	合起來	-0.1270336
-4.011057	合理	-0.1589232
-4.503969	合理的	-0.1270336
-5.036735	合寫
-5.036735	合適
-4.667431	吃	-0.1270336
-5.036735	吃到
-5.036735	吃掉
-5.036735	吃進去
-5.036735	后
-5.036735	吒
-4.667431	因	-0.1270336
-5.036735	因式
-3.565997	因此	-0.1892354
-4.321242	因此呢	-0.1559254
-4.667431	因故	-0.1270336
-2.680294	因為	-0.2746369
-4.139026	因素	-0.1757913
-5.036735	因應
-4.011057	回	-0.1958725
-3.70552	回去	-0.1632243
-4.667431	回回	-0.1270336
-5.036735	回成
-3.764153	回來	-0.2010129
-5.036735	回來到
-3.375795	回到	-0.1636761
-4.667431	回答	-0.1270336
-4.139026	回想	-0.290235
-5.036735	回想到
-4.667431	回過來	-0.1270336
-4.139026	回過頭來	-0.165592
-4.667431	回憶	-0.1270336
-5.036735	回頭
-5.036735	回應
-5.036735	囝
-5.036735	圳
-3.70552	地	-0.1270336
-5.036735	地上
-3.460565	地方	-0.2092126
-4.011057	地名	-0.1270336
-4.667431	地物	-0.1270336
-5.036735	地區
-4.503969	地點	-0.1757913
-4.503969	地鐵	-0.2307235
-2.233234	在	-0.3348759
-3.492946	在一起	-0.3247596
-4.321242	在下	-0.1270336
-5.036735	在平面上
-3.527937	在在	-0.1695044
-3.912339	在那裡	-0.1589231
-4.667431	在於	-0.1270336
-3.65387	在哪裡	-0.412878
-3.086714	在這個	-0.2063904
-2.718121	在這裡	-0.3657677
-3.174103	在這邊	-0.148031
-5.036735	在軸上
-3.565997	在裡面	-0.1896411
-5.036735	在學
-5.036735	圭
-5.036735	圯
-5.036735	圩
-5.036735	夙
-3.086714	多	-0.2201306
-4.011057	多一點	-0.165592
-3.70552	多了	-0.1480311
-5.036735	多不多
-4.503969	多元	-0.2307235
-3.492946	多少	-0.2281399
-5.036735	多出來
-4.667431	多加	-0.1270336
-5.036735	多半
-4.667431	多多	-0.1270336
-5.036735	多此一舉
-5.036735	多事
-5.036735	多所
-3.607715	多的	-0.1270336
-4.667431	多音節	-0.1270336
-3.764153	多個	-0.2117671
-5.036735	多起來
-4.667431	多媒體	-0.1270336
-5.036735	多雲
-5.036735	多話
-4.667431	多維	-0.1270336
-4.667431	多麼	-0.1270336
-3.831956	多數	-0.1853448
-5.036735	多餘
-5.036735	多點
-5.036735	夷
-5.036735	夸
-5.036735	妄
-5.036735	奸
-5.036735	妃
-3.128214	好	-0.2798721
-3.527937	好了	-0.4473646
-4.667431	好不	-0.1270336
-5.036735	好不了
-3.764153	好不好	-0.219686
-4.321242	好比	-0.1757913
-4.667431	好用	-0.1270336
-3.764153	好多	-0.1818464
-4.667431	好好	-0.1270336
-5.036735	好事
-4.667431	好些	-0.1270336
-5.036735	好拉
-5.036735	好朋友
-3.565997	好的	-0.2534718
-4.321242	好看	-0.1757913
-4.503969	好容易	-0.2307235
-5.036735	好恩
-4.667431	好兜	-0.1270336
-5.036735	好動
-5.036735	好啊
-3.764153	好處	-0.2057014
-3.70552	好幾	-0.267235
-4.503969	好詞	-0.1270336
-5.036735	好極了
-5.036735	好群
-3.527937	好像	-0.2350981
-5.036735	好寫
-5.036735	好壞
-3.912339	好聽	-0.1589231
-5.036735	她
-5.036735	她們
-4.139026	如	-0.2110537
-5.036735	如此
-3.350855	如何	-0.1865565
-4.667431	如何如何	-0.1270336
-2.765816	如果	-0.2602798
-3.764153	如果有	-0.1507286
-3.207633	如果是	-0.158904
-3.607715	如果說	-0.2956948
-3.128214	字	-0.2999124
-4.667431	字句	-0.1270336
-4.321242	字母	-0.1270336
-5.036735	字串
-4.321242	字典	-0.1270336
-5.036735	字音
-5.036735	字接
-3.70552	字詞	-0.219635
-4.503969	字彙	-0.1270336
-5.036735	字數
-5.036735	存
-5.036735	存不存在
-4.139026	存在	-0.1270336
-5.036735	存在一個
-5.036735	存在有
-5.036735	存在的
-4.667431	存好	-0.1270336
-5.036735	宇
-5.036735	守
-5.036735	守恆
-5.036735	宅
-5.036735	安
-4.667431	安理會	-0.1270336
-4.139026	安裝	-0.1270336
-5.036735	寺
-5.036735	尖
-5.036735	尖端
-5.036735	尖銳
-5.036735	屹
-5.036735	州
-5.036735	帆
-5.036735	并
-3.764153	年	-0.1426857
-4.667431	年下	-0.1270336
-4.503969	年代	-0.1270336
-5.036735	年底
-4.667431	年前	-0.1270336
-5.036735	年級
-5.036735	年輕
-4.503969	式	-0.1757913
-3.565997	式子	-0.2090416
-5.036735	弛
-5.036735	忙
-5.036735	忖
-5.036735	戎
-5.036735	戌
-5.036735	戍
-3.831956	成	-0.1270336
-5.036735	成千上萬
-5.036735	成大
-5.036735	成分
-4.321242	成功	-0.165592
-4.667431	成功度	-0.1270336
-4.667431	成功率	-0.1270336
-4.667431	成立	-0.1270336
-5.036735	成份
-5.036735	成那
-5.036735	成長
-3.527937	成為	-0.1523551
-5.036735	成就
-4.667431	成像	-0.1270336
-5.036735	成對
-4.503969	成熟	-0.1270336
-5.036735	成積
-5.036735	成績
-5.036735	成績股
-5.036735	扣
-5.036735	扣分
-4.503969	扣掉	-0.1270336
-5.036735	扛
-5.036735	托
-4.321242	收	-0.1270336
-3.831956	收到	-0.148031
-5.036735	收起
-4.667431	收掉	-0.1270336
-5.036735	收進
-5.036735	收集
-5.036735	收緊
-5.036735	收緊收緊
-4.667431	收斂	-0.1270336
-5.036735	收斂成
-5.036735	收斂收斂
-5.036735	收斂的
-5.036735	收獲
-5.036735	收歛
-3.565997	早	-0.1842841
-4.139026	早一點	-0.1270336
-4.503969	早上	-0.1270336
-5.036735	早已
-5.036735	早年
-4.667431	早就	-0.1270336
-4.667431	早期	-0.1270336
-5.036735	旨
-5.036735	旬
-5.036735	旭
-5.036735	曲
-4.503969	曲線	-0.1270336
-5.036735	曳
-2.267854	有	-0.3539949
-3.492946	有一些	-0.1945689
-2.75956	有一個	-0.2060207
-3.527937	有一點	-0.1404149
-4.321242	有一點點	-0.1270336
-3.327269	有了	-0.2392854
-4.503969	有大有小	-0.1270336
-5.036735	有加
-5.036735	有用
-4.667431	有用的	-0.1270336
-5.036735	有名
-4.667431	有別	-0.1270336
-5.036735	有利
-4.667431	有助於	-0.1270336
-3.70552	有沒有	-0.1589232
-4.139026	有些	-0.165592
-4.321242	有所	-0.1933412
-3.061098	有的	-0.2772359
-5.036735	有空
-4.011057	有限	-0.165592
-3.65387	有個	-0.177005
-4.503969	有效	-0.1270336
-4.011057	有效的	-0.1270336
-5.036735	有時候
-3.831956	有夠	-0.3571818
-5.036735	有給
-4.321242	有意思	-0.1270336
-4.503969	有意義的	-0.1270336
-5.036735	有數
-5.036735	有緣
-5.036735	有線
-5.036735	有請
-5.036735	有趣
-4.667431	有機	-0.1270336
-4.503969	有興趣	-0.1270336
-4.321242	有幫助	-0.1933412
-3.70552	有點	-0.1716934
-3.912339	有關	-0.1589232
-4.321242	有關於	-0.1270336
-3.831956	有關的	-0.1776131
-5.036735	有關係
-5.036735	朴
-5.036735	朱
-5.036735	朵
-3.283625	次	-0.1797524
-5.036735	次之
-4.011057	次方	-0.2165833
-5.036735	次於
-5.036735	次要
-5.036735	次值
-4.667431	次等	-0.1270336
-3.912339	次數	-0.2433367
-4.667431	此	-0.1270336
-4.667431	此外	-0.1270336
-5.036735	死
-4.503969	死人	-0.1270336
-4.667431	死亡	-0.1270336
-5.036735	汝
-5.036735	汗
-5.036735	汙
-5.036735	江
-5.036735	江浙
-5.036735	池
-5.036735	池塘
-5.036735	汐
-5.036735	汕
-5.036735	污
-5.036735	汛
-5.036735	汎
-5.036735	灰
-4.667431	灰色	-0.1270336
-5.036735	牟
-5.036735	牝
-3.831956	百	-0.1507286
-4.667431	百分之	-0.1270336
-5.036735	百分之一百
-5.036735	百分之七十
-4.321242	百分之九十	-0.1933412
-5.036735	百分之二十
-4.667431	百分之十	-0.1270336
-5.036735	百分之三十
-5.036735	百分之五
-4.321242	百分之五十	-0.1270336
-5.036735	百分之幾
-5.036735	竹
-5.036735	米
-5.036735	糸
-5.036735	缶
-5.036735	羊
-5.036735	羽
-5.036735	老
-5.036735	老大
-4.667431	老早	-0.1270336
-5.036735	老是
-4.667431	老師	-0.1270336
-4.667431	老實話	-0.1270336
-5.036735	老闆
-4.011057	考	-0.1270336
-4.321242	考古題	-0.1270336
-4.503969	考完	-0.1270336
-4.503969	考到	-0.1270336
-4.667431	考試	-0.1270336
-3.70552	考慮	-0.1718401
-4.667431	考慮到	-0.1270336
-5.036735	考慮進來
-4.667431	考驗	-0.1270336
-3.263344	而	-0.1542066
-3.061098	而已	-0.8235376
-3.607715	而且	-0.1535758
-3.190545	而言	-0.2764907
-3.430432	而是	-0.1395099
-5.036735	耒
-5.036735	耳
-4.011057	耳朵	-0.2110537
-5.036735	聿
-5.036735	肉
-5.036735	肋
-5.036735	肌
-5.036735	臣
-5.036735	自
-3.460565	自己	-0.1818877
-4.503969	自己的	-0.1270336
-5.036735	自成
-4.667431	自行	-0.1270336
-5.036735	自我
-3.607715	自動	-0.1542216
-5.036735	自動化
-4.139026	自動的	-0.1270336
-4.011057	自動產生	-0.3317794
-4.321242	自殺	-0.2777166
-4.139026	自然	-0.1270336
-4.667431	自發性	-0.1270336
-5.036735	自圓其說
-5.036735	至
-3.527937	至少	-0.1747206
-4.139026	至於	-0.1542216
-5.036735	臼
-5.036735	舌
-5.036735	舛
-5.036735	舟
-5.036735	艮
-4.503969	色	-0.2307235
-5.036735	艾
-5.036735	虫
-5.036735	血
-3.527937	行	-0.2076325
-5.036735	行不行
-5.036735	行好
-5.036735	行有餘力
-5.036735	行的通
-5.036735	行政
-5.036735	行政院長
-5.036735	行都
-5.036735	行業
-5.036735	衣
-5.036735	衣服
-4.321242	西	-0.1270336
-5.036735	西方
-4.667431	西方語言	-0.1270336
-5.036735	西法
-5.036735	西南
-5.036735	西部片
-5.036735	阡
-5.036735	串
-4.503969	串成	-0.1270336
-4.139026	串起來	-0.1757913
-5.036735	串連
-5.036735	串連起來
-5.036735	串聯
-5.036735	亨
-5.036735	位
-4.503969	位子	-0.1270336
-3.764153	位置	-0.1684715
-4.667431	住	-0.1270336
-4.503969	住進	-0.2307235
-5.036735	佇
-5.036735	佗
-5.036735	佞
-5.036735	伴
-5.036735	佛
-4.667431	何	-0.1270336
-4.667431	何不	-0.1270336
-5.036735	何以見得
-5.036735	何必
-5.036735	何處
-4.667431	估	-0.1270336
-3.527937	估計	-0.2002827
-4.667431	估算	-0.1270336
-5.036735	佐
-5.036735	佑
-5.036735	伽
-5.036735	伺
-5.036735	伸
-5.036735	伸出
-5.036735	伸到
-4.667431	伸縮	-0.1270336
-5.036735	佃
-4.139026	佔	-0.2079103
-5.036735	似
-4.503969	似乎	-0.1270336
-5.036735	似的
-5.036735	似曾相識
-3.831956	但	-0.1563852
-3.061098	但是	-0.1819567
-4.011057	但是呢	-0.1436243
-5.036735	但書
-5.036735	佣
-3.460565	作	-0.1270336
-4.667431	作內積	-0.1270336
-4.503969	作法	-0.1933412
-4.667431	作者	-0.1270336
-4.667431	作品	-0.1270336
-4.667431	作為	-0.1270336
-3.764153	作業	-0.1950271
-2.209842	你	-0.3914725
-2.923649	你可以	-0.2524549
-3.304899	你可以想像	-0.1832156
-2.923649	你如果	-0.2569004
-4.667431	你我	-0.1270336
-2.819403	你的	-0.2020509
-3.460565	你知道	-0.1488593
-3.304899	你看	-0.2546751
-4.139026	你們	-0.1270336
-4.321242	你等	-0.1933412
-5.036735	伯
-3.375795	低	-0.2368684
-5.036735	低下
-4.139026	低頻	-0.4026554
-4.667431	低頻的	-0.1270336
-5.036735	伶
-5.036735	余
-5.036735	佝
-4.667431	佈	-0.1270336
-5.036735	佈置
-5.036735	佚
-5.036735	兌
-5.036735	克
-4.139026	克服	-0.1270336
-5.036735	免
-4.667431	免不了	-0.1270336
-5.036735	兵
-5.036735	冶
-4.667431	冷	-0.1270336
-4.139026	冷氣	-0.1270336
-5.036735	冷氣團
-5.036735	別
-4.321242	別人	-0.1270336
-4.667431	別於	-0.1270336
-3.375795	別的	-0.1684715
-4.503969	判	-0.1270336
-5.036735	判段
-3.327269	判斷	-0.241348
-5.036735	利
-4.503969	利用	-0.2307235
-5.036735	刪
-5.036735	刪掉
-5.036735	刨
-5.036735	劫
-5.036735	助
-3.70552	助教	-0.1270336
-5.036735	助講
-5.036735	努
-4.667431	努力	-0.1270336
-5.036735	匣
-5.036735	即
-4.011057	即使	-0.1270336
-4.139026	即使是	-0.1270336
-5.036735	即時
-5.036735	卵
-5.036735	吝
-5.036735	吭
-5.036735	吞
-5.036735	吾
-5.036735	否
-4.321242	否則	-0.1933412
-4.503969	否則的話	-0.1270336
-5.036735	呎
-3.460565	吧	-0.2850293
-5.036735	呆
-2.798526	呃	-0.2338573
-5.036735	吳
-5.036735	呈
-3.764153	呈現	-0.2291209
-5.036735	呈現出來
-4.321242	呂	-0.1933412
-4.139026	呂秀蓮	-0.1757913
-5.036735	君
-5.036735	吩
-4.667431	告	-0.1270336
-4.139026	告訴	-0.165592
-5.036735	告訴告訴
-3.460565	告訴我	-0.2076325
-5.036735	吹
-5.036735	吹動
-5.036735	吹亂
-5.036735	吻
-5.036735	吸
-5.036735	吸引人
-5.036735	吸收
-5.036735	吸收掉
-5.036735	吵
-5.036735	吵架
-4.667431	吵雜	-0.1270336
-4.667431	吶	-0.1270336
-5.036735	吠
-5.036735	吼
-3.70552	呀	-0.2174508
-5.036735	吱
-4.667431	含	-0.1270336
-5.036735	含有
-5.036735	吟
-4.667431	困	-0.1270336
-5.036735	困惑
-3.764153	困難	-0.1716933
-5.036735	困難度
-5.036735	囤
-5.036735	坊
-5.036735	坑
-5.036735	址
-5.036735	坍
-5.036735	均
-5.036735	坎
-5.036735	圾
-4.503969	坐	-0.1270336
-5.036735	坏
-5.036735	圻
-5.036735	壯
-4.667431	夾	-0.1270336
-5.036735	夾角
-4.667431	夾雜	-0.1270336
-5.036735	妝
-5.036735	妒
-5.036735	妨
-4.667431	妞	-0.1270336
-5.036735	妙
-5.036735	妖
-5.036735	妍
-5.036735	妤
-5.036735	妓
-5.036735	妊
-5.036735	妥
-5.036735	孝
-5.036735	孜
-5.036735	孚
-5.036735	孛
-3.607715	完	-0.2669095
-4.667431	完了	-0.1270336
-3.128214	完全	-0.2766791
-4.321242	完全沒有	-0.1270336
-4.321242	完成	-0.1933412
-4.667431	完畢	-0.1270336
-4.139026	完整	-0.165592
-4.139026	完整的	-0.1589232
-5.036735	宋
-5.036735	宏
-5.036735	尬
-5.036735	局
-5.036735	屁
-5.036735	尿
-4.503969	尾	-0.1270336
-5.036735	尾巴
-5.036735	岐
-5.036735	岑
-5.036735	岔
-5.036735	岌
-4.321242	巫	-0.1270336
-5.036735	希
-5.036735	希希
-3.430432	希望	-0.1572953
-5.036735	序
-5.036735	庇
-5.036735	床
-5.036735	廷
-3.912339	弄	-0.1589232
-5.036735	弄好
-5.036735	弄低
-5.036735	弄法
-4.139026	弄得	-0.1270336
-4.139026	弄清楚	-0.165592
-4.503969	弄進	-0.2307235
-4.667431	弄錯	-0.1270336
-5.036735	弟
-5.036735	彤
-4.667431	形	-0.1270336
-4.503969	形式	-0.2307235
-5.036735	形成
-5.036735	形狀
-4.503969	形容	-0.1270336
-4.503969	形容詞	-0.1270336
-5.036735	彷
-5.036735	役
-5.036735	忘
-4.667431	忘了	-0.1270336
-4.503969	忘掉	-0.1270336
-5.036735	忌
-5.036735	志
-5.036735	忍
-5.036735	忱
-3.65387	快	-0.2132032
-5.036735	快要
-5.036735	快速
-5.036735	快慢
-4.667431	戒	-0.1270336
-5.036735	戒嚴
-2.158674	我	-0.3999752
-4.667431	我人	-0.1270336
-3.190545	我可以	-0.1959205
-3.65387	我只要	-0.1374054
-3.402255	我如果	-0.1530806
-2.729563	我的	-0.2317823
-2.197749	我們	-0.4392899
-3.048835	我們的	-0.1745068
-2.856597	我現在	-0.2748166
-3.158262	我這個	-0.2124966
-3.190545	我這邊	-0.2004817
-2.785145	我就	-0.3267899
-3.912339	我等	-0.290235
-4.321242	我覺得	-0.1270336
-4.503969	抄	-0.2307235
-5.036735	抄阿
-5.036735	抗
-5.036735	抖
-5.036735	技
-3.70552	技術	-0.2287657
-5.036735	扶
-5.036735	抉
-5.036735	扭
-2.47408	把	-0.4278359
-4.321242	把把	-0.1270336
-5.036735	扼
-3.073717	找	-0.2473741
-4.139026	找出	-0.1270336
-4.321242	找出來	-0.1270336
-4.139026	找回來	-0.1757913
-4.667431	找找	-0.1270336
-4.667431	找來	-0.1270336
-3.304899	找到	-0.1875683
-4.667431	找給	-0.1270336
-4.667431	找錯	-0.1270336
-5.036735	批
-4.011057	批次檔	-0.1270336
-5.036735	扳
-5.036735	扳回
-5.036735	抒
-5.036735	扯
-5.036735	折
-5.036735	折衷
-5.036735	扮
-5.036735	投
-5.036735	投出來
-4.503969	投到	-0.1270336
-3.527937	投影	-0.2554791
-4.321242	投影片	-0.1270336
-3.492946	抓	-0.2166512
-4.667431	抓不到	-0.1270336
-4.667431	抓出	-0.1270336
-4.667431	抓出來	-0.1270336
-5.036735	抓來
-3.831956	抓到	-0.167015
-5.036735	抑
-5.036735	抑揚
-5.036735	抑揚頓挫
-4.139026	改	-0.1757913
-5.036735	改用
-5.036735	改名
-4.503969	改成	-0.1270336
-5.036735	改改
-4.667431	改善	-0.1270336
-5.036735	改進
-5.036735	改過來
-5.036735	改寫成
-3.912339	改變	-0.1270336
-4.667431	攻	-0.1270336
-5.036735	攻打
-4.503969	攻擊	-0.1270336
-5.036735	攸
-5.036735	旱
-3.350855	更	-0.177005
-4.321242	更小	-0.1757913
-4.667431	更少	-0.1270336
-4.321242	更多	-0.1270336
-5.036735	更多的
-3.70552	更好	-0.1818464
-4.667431	更何況	-0.1270336
-4.667431	更更	-0.1270336
-4.667431	更為	-0.1270336
-5.036735	更深
-5.036735	束
-4.503969	李	-0.1270336
-5.036735	李四
-4.139026	李安	-0.2348695
-4.667431	李有登	-0.1270336
-4.503969	李麥克	-0.1270336
-4.321242	李登輝	-0.1757913
-5.036735	杏
-4.667431	材	-0.1270336
-5.036735	村
-5.036735	村落
-5.036735	杜
-5.036735	杖
-5.036735	杞
-5.036735	杉
-5.036735	杆
-5.036735	杠
-5.036735	杓
-4.667431	步	-0.1270336
-4.667431	步驟	-0.1270336
-2.961505	每	-0.4524377
-4.321242	每一段	-0.1270336
-2.753392	每一個	-0.3046106
-5.036735	每一項
-5.036735	每一塊
-3.764153	每一點	-0.1414615
-4.321242	每天	-0.1270336
-4.503969	每每	-0.1270336
-3.65387	每個	-0.1414615
-4.667431	每個人	-0.1270336
-5.036735	每當
-4.503969	每隔	-0.1270336
-3.174103	求	-0.2747894
-5.036735	求一求
-4.667431	求出	-0.1270336
-4.139026	求出來	-0.1270336
-5.036735	求好
-5.036735	求求
-5.036735	汞
-5.036735	沙
-5.036735	沙發
-5.036735	沁
-5.036735	沈
-5.036735	沉
-5.036735	沅
-5.036735	沛
-5.036735	汪
-5.036735	決
-3.607715	決定	-0.1639629
-5.036735	沐
-5.036735	汰
-5.036735	沌
-5.036735	沖
-3.565997	沒	-0.2151154
-3.912339	沒什麼	-0.4109607
-4.667431	沒用	-0.1270336
-2.680294	沒有	-0.2769807
-4.667431	沒有了	-0.1270336
-4.503969	沒有人	-0.1270336
-5.036735	沒有用
-3.764153	沒有的	-0.2043266
-3.912339	沒有規定	-0.1757913
-4.139026	沒有關係	-0.1757913
-5.036735	沒完
-5.036735	沒沒
-5.036735	沒道理
-3.831956	沒辦法	-0.1776131
-4.321242	沒錯	-0.1933412
-4.667431	沒關係	-0.1270336
-5.036735	汽
-4.503969	汽車	-0.1270336
-5.036735	沃
-5.036735	汲
-5.036735	汾
-5.036735	汴
-5.036735	汶
-5.036735	沔
-5.036735	沂
-5.036735	灶
-5.036735	灼
-5.036735	災
-5.036735	災害
-5.036735	災難
-5.036735	灸
-5.036735	牢
-5.036735	牡
-5.036735	牠
-5.036735	狄
-5.036735	狂
-5.036735	玖
-5.036735	甬
-5.036735	甫
-4.667431	男	-0.1270336
-4.667431	男生	-0.1270336
-4.667431	男星	-0.1270336
-5.036735	男童
-5.036735	甸
-5.036735	皂
-5.036735	盯
-5.036735	矣
-5.036735	私
-5.036735	私有
-4.667431	秀	-0.1270336
-4.667431	秀秀	-0.1270336
-4.503969	秀蓮	-0.2307235
-5.036735	禿
-5.036735	究
-4.321242	究竟	-0.1757913
-4.667431	系	-0.1270336
-4.503969	系列	-0.1270336
-3.225421	系統	-0.1623689
-4.667431	罕	-0.1270336
-5.036735	肖
-5.036735	肓
-5.036735	肝
-5.036735	肘
-5.036735	肛
-5.036735	肚
-5.036735	育
-5.036735	良
-5.036735	芒
-5.036735	芋
-5.036735	芍
-4.321242	見	-0.1933412
-5.036735	角
-4.667431	角色	-0.1270336
-5.036735	角度
-5.036735	角減
-4.667431	言	-0.1270336
-5.036735	谷
-5.036735	豆
-5.036735	豕
-5.036735	貝
-4.667431	貝帝	-0.1270336
-5.036735	赤
-3.002979	走	-0.2471122
-4.667431	走下去	-0.1270336
-4.667431	走下來	-0.1270336
-4.667431	走向	-0.1270336
-4.139026	走完	-0.1270336
-4.011057	走走	-0.2110537
-3.263344	走到	-0.1865565
-5.036735	走過去
-4.011057	走過來	-0.1542216
-5.036735	走對
-5.036735	足
-4.321242	足夠	-0.1270336
-5.036735	身
-5.036735	身份
-4.503969	車	-0.1270336
-4.667431	車上	-0.1270336
-5.036735	車子
-4.667431	車窗	-0.1270336
-5.036735	辛
-4.667431	辛苦	-0.1270336
-5.036735	辰
-5.036735	迅
-5.036735	迅速
-5.036735	迄
-5.036735	巡
-5.036735	邑
-5.036735	邢
-5.036735	邪
-5.036735	邦
-2.437075	那	-0.244744
-3.402255	那一個	-0.1902399
-4.321242	那一塊	-0.1270336
-4.321242	那一點	-0.1589232
-4.503969	那如果	-0.1368533
-3.061098	那些	-0.2459639
-4.667431	那兒	-0.1270336
-3.912339	那是	-0.1414615
-2.493836	那個	-0.2282876
-4.321242	那個人	-0.1270336
-4.503969	那個的	-0.2307235
-4.667431	那時	-0.1270336
-4.321242	那時候	-0.1270336
-3.831956	那堆	-0.1619418
-3.492946	那就是	-0.185742
-4.667431	那會	-0.1270336
-3.460565	那裡	-0.2142473
-4.667431	那裡的	-0.1270336
-2.914679	那麼	-0.1563061
-5.036735	那麼少
-4.503969	那麼因此呢	-0.1328373
-3.607715	那麼多	-0.165592
-3.764153	那樣	-0.1507286
-4.503969	那樣的	-0.1270336
-3.912339	那邊	-0.1270336
-4.667431	那邊的	-0.1270336
!big5_to_utf8: iconv failed: 84

-5.036735	酉
-5.036735	釆
-4.667431	里	-0.1270336
-5.036735	防
-5.036735	阮
-5.036735	阱
-5.036735	阪
-3.375795	並	-0.3079239
-3.831956	並不是	-0.1270336
-5.036735	並用
-3.70552	並沒有	-0.1270336
-5.036735	並聯
-5.036735	乖
-5.036735	乳
-3.607715	事	-0.335221
-4.321242	事件	-0.1270336
-5.036735	事先
-4.667431	事兒	-0.1270336
-3.225421	事情	-0.2536191
-4.667431	事業	-0.1270336
-5.036735	事實
-3.402255	事實上	-0.2142204
-4.503969	事實上呢	-0.1270336
-3.764153	些	-0.1877283
-5.036735	亞
-5.036735	享
-5.036735	京
-5.036735	京話
-5.036735	佯
-5.036735	依
-5.036735	侍
-5.036735	佳
-4.503969	使	-0.1270336
-3.65387	使用	-0.1818464
-3.70552	使得	-0.1695044
-5.036735	佬
-5.036735	供
-4.503969	例	-0.1270336
-3.565997	例子	-0.2764168
-4.667431	例如	-0.1270336
-5.036735	例題
-2.290456	來	-0.4238784
-3.831956	來了	-0.3571817
-4.667431	來上	-0.1270336
-5.036735	來不及
-3.565997	來分	-0.2594607
-4.667431	來切	-0.1270336
-5.036735	來去
-5.036735	來存
-3.912339	來自	-0.145885
-4.011057	來來	-0.1270336
-4.503969	來來來	-0.2307235
-5.036735	來到
-5.036735	來往
-5.036735	來信
-3.142978	來看	-0.3734102
-5.036735	來兜成
-4.321242	來得	-0.1270336
-4.503969	來這	-0.1270336
-5.036735	來散
-4.667431	來源	-0.1270336
-5.036735	來過
-3.492946	來說	-0.2023353
-3.304899	來講	-0.2939586
-5.036735	侃
-5.036735	佰
-5.036735	併
-5.036735	侈
-5.036735	佩
-5.036735	侖
-5.036735	佾
-5.036735	侏
-5.036735	侑
-5.036735	佺
-5.036735	兔
-5.036735	兒
-5.036735	兒童
-2.805374	兩	-0.565227
-4.321242	兩三	-0.1933412
-5.036735	兩千多
-5.036735	兩千年
-5.036735	兩千零一年
-4.503969	兩千零二年	-0.1270336
-4.667431	兩千零三年	-0.1270336
-5.036735	兩年
-4.011057	兩次	-0.1270336
-4.667431	兩次微分	-0.1270336
-4.139026	兩百	-0.2348694
-3.70552	兩百五十	-0.3257278
-5.036735	兩百多
-3.764153	兩兩	-0.1716933
-4.667431	兩兩千年	-0.1270336
-5.036735	兩兩兩
-5.036735	兩兩點
-5.036735	兩者
-5.036735	兩相
-5.036735	兩倍
-4.321242	兩套	-0.1933412
-4.011057	兩週	-0.1270336
-5.036735	兩萬
-4.667431	兩萬五多	-0.1270336
-3.70552	兩種	-0.1765191
-5.036735	兩樣
-5.036735	兩點
-3.912339	兩邊	-0.1589232
-4.667431	具	-0.1270336
-5.036735	具有
-5.036735	具現
-5.036735	具備
-4.503969	具體	-0.1933412
-4.321242	其	-0.1933412
-3.565997	其中	-0.2588435
-5.036735	其他
-5.036735	其他的
-3.527937	其它	-0.1529482
-3.142978	其它的	-0.2227625
-5.036735	其次
-2.428296	其實	-0.3368305
-4.503969	其實不然	-0.1933412
-4.139026	其實沒有	-0.1757913
-2.798526	其實是	-0.2050803
-5.036735	典
-4.667431	典藏	-0.1270336
-5.036735	冽
-5.036735	函
-5.036735	函數
-5.036735	刻
-5.036735	券
-5.036735	刷
-5.036735	刺
-2.571055	到	-0.2773667
-4.503969	到九	-0.1270336
-3.402255	到了	-0.1368533
-4.139026	到大	-0.2110537
-5.036735	到用
-5.036735	到來
-3.100111	到底	-0.1856561
-4.503969	到負	-0.1270336
-4.011057	到時候	-0.1270336
-5.036735	到處
-3.65387	到這個	-0.1414615
-3.304899	到這裡	-0.3331882
-5.036735	到賓拉
-5.036735	刮
-4.667431	制	-0.1270336
-5.036735	制裁權
-5.036735	剁
-5.036735	劾
-5.036735	劻
-5.036735	卒
-5.036735	協
-5.036735	卓
-5.036735	卑
-5.036735	卦
-5.036735	卷
-5.036735	卸
-5.036735	卹
-2.992233	取	-0.3333421
-5.036735	取下
-5.036735	取代
-5.036735	取出
-4.667431	取出來	-0.1270336
-5.036735	取到
-5.036735	取得
-5.036735	叔
-3.912339	受	-0.1270336
-4.667431	受不了	-0.1270336
-4.011057	受到	-0.165592
-5.036735	受限於
-4.667431	受傷	-0.1270336
-5.036735	味
-5.036735	味道
-5.036735	呵
-4.667431	咖	-0.1270336
-5.036735	咕
-5.036735	咀
-5.036735	呷
-5.036735	咄
-5.036735	咒
-5.036735	咆
-5.036735	呼
-5.036735	呼呼
-5.036735	呼應
-5.036735	呼籲
-5.036735	咐
-5.036735	呱
-4.321242	和	-0.1933412
-4.503969	和平	-0.1270336
-5.036735	咚
-2.101835	呢	-0.5443299
-3.764153	呢有	-0.1270336
-4.667431	周	-0.1270336
-5.036735	周末
-5.036735	周期性
-4.321242	命	-0.1589231
-5.036735	命題
-5.036735	咎
-5.036735	固
-4.139026	固定	-0.4026554
-5.036735	垃
-5.036735	垃圾
-5.036735	坪
-5.036735	坡
-5.036735	坦
-5.036735	坤
-5.036735	夜
-5.036735	奉
-5.036735	奇
-4.321242	奇奇怪怪	-0.1933412
-4.667431	奇怪	-0.1270336
-5.036735	奇數
-5.036735	奈
-5.036735	奄
-5.036735	奔
-5.036735	妾
-5.036735	妻
-5.036735	委
-5.036735	妹
-5.036735	妮
-5.036735	姑
-4.503969	姑且	-0.1270336
-5.036735	姆
-5.036735	姐
-5.036735	姍
-5.036735	始
-4.667431	始終	-0.1270336
-4.503969	姓	-0.1270336
-5.036735	姊
-5.036735	妳
-5.036735	孟
-5.036735	孤
-5.036735	季
-5.036735	宗
-4.667431	定	-0.1270336
-4.667431	定一	-0.1270336
-5.036735	定存
-5.036735	定值
-3.70552	定義	-0.167015
-5.036735	定義成
-5.036735	定義的
-5.036735	官
-4.503969	官方	-0.1270336
-5.036735	宜
-5.036735	宙
-5.036735	宛
-4.667431	尚	-0.1270336
-5.036735	尚未
-5.036735	屈
-5.036735	居
-5.036735	居然
-5.036735	屆
-5.036735	岷
-5.036735	岡
-5.036735	岸
-5.036735	岩
-5.036735	岫
-5.036735	岱
-5.036735	岳
-5.036735	帚
-5.036735	帖
-5.036735	帕
-5.036735	帛
-5.036735	帑
-5.036735	幸
-5.036735	庚
-4.667431	店	-0.1270336
-5.036735	府
-4.139026	底	-0.1270336
-3.142978	底下	-0.3228057
-4.667431	底上	-0.1270336
-4.667431	底部	-0.1270336
-4.667431	底層	-0.1270336
-5.036735	庖
-4.667431	延	-0.1270336
-4.503969	延伸	-0.2307235
-5.036735	延伸到
-4.667431	延伸為	-0.1270336
-5.036735	延弄
-5.036735	延後
-5.036735	延續
-5.036735	弦
-5.036735	弧
-5.036735	弩
-3.912339	往	-0.1958725
-4.139026	往下	-0.1757913
-5.036735	往回
-5.036735	往後
-5.036735	征
-5.036735	彿
-5.036735	彼
-5.036735	彼此
-5.036735	忠
-5.036735	忽
-5.036735	忽然
-3.912339	念	-0.1270336
-5.036735	念完
-5.036735	念到
-5.036735	念念
-5.036735	念書
-5.036735	念給
-5.036735	忿
-5.036735	怯
-5.036735	怵
-5.036735	怖
-5.036735	怪
-5.036735	怪怪
-4.503969	怕	-0.1270336
-5.036735	怡
-4.667431	性	-0.1270336
-5.036735	性別
-3.831956	或	-0.1270336
-2.864434	或者	-0.167305
-3.304899	或者是	-0.1383607
-4.667431	或者是說	-0.1270336
-3.607715	或者說	-0.2112861
-4.011057	或是	-0.1270336
-5.036735	或許
-5.036735	戕
-5.036735	房
-4.503969	房子	-0.1933412
-2.872415	所	-0.226249
